{"learner":{"attributes":{"scikit_learn":"{\"_estimator_type\": \"classifier\"}"},"feature_names":[],"feature_types":[],"gradient_booster":{"model":{"cats":{"enc":[],"feature_segments":[],"sorted_idx":[]},"gbtree_model_param":{"num_parallel_tree":"1","num_trees":"100"},"iteration_indptr":[0,1,2,3,4,5,6,7,8,9,10,11,12,13,14,15,16,17,18,19,20,21,22,23,24,25,26,27,28,29,30,31,32,33,34,35,36,37,38,39,40,41,42,43,44,45,46,47,48,49,50,51,52,53,54,55,56,57,58,59,60,61,62,63,64,65,66,67,68,69,70,71,72,73,74,75,76,77,78,79,80,81,82,83,84,85,86,87,88,89,90,91,92,93,94,95,96,97,98,99,100],"tree_info":[0,0,0,0,0,0,0,0,0,0,0,0,0,0,0,0,0,0,0,0,0,0,0,0,0,0,0,0,0,0,0,0,0,0,0,0,0,0,0,0,0,0,0,0,0,0,0,0,0,0,0,0,0,0,0,0,0,0,0,0,0,0,0,0,0,0,0,0,0,0,0,0,0,0,0,0,0,0,0,0,0,0,0,0,0,0,0,0,0,0,0,0,0,0,0,0,0,0,0,0],"trees":[{"base_weights":[-1.8224265E-2,1.9982213E0,-1.4645987E0,2.1761935E0,8.586727E-1,-1.6171051E0,5.040019E-1,7.22159E-2,2.2086406E-1,-5.2456077E-2,1.0964335E0,-6.783705E-1,-1.6809996E0,1.3267854E0,-1.17036484E-1,1.634963E-1,4.0444586E-2,-1.2981592E-1,1.2707274E-1,-1.7162329E-1,-7.992252E-2,1.5171328E-1,3.7308328E-2],"categories":[],"categories_nodes":[],"categories_segments":[],"categories_sizes":[],"default_left":[0,0,0,0,0,0,0,0,0,0,0,0,0,0,0,0,0,0,0,0,0,0,0],"id":0,"left_children":[1,3,5,7,9,11,13,-1,-1,-1,15,17,19,21,-1,-1,-1,-1,-1,-1,-1,-1,-1],"loss_changes":[4.614309E2,1.1534271E1,2.8472168E1,1.0710144E0,4.054297E0,4.002075E0,1.1727924E1,0E0,0E0,0E0,2.8233643E0,1.0275261E1,1.1012115E0,4.1808128E-1,0E0,0E0,0E0,0E0,0E0,0E0,0E0,0E0,0E0],"parents":[2147483647,0,0,1,1,2,2,3,3,4,4,5,5,6,6,10,10,11,11,12,12,13,13],"right_children":[2,4,6,8,10,12,14,-1,-1,-1,16,18,20,22,-1,-1,-1,-1,-1,-1,-1,-1,-1],"split_conditions":[3.06E0,2.82E0,3.46E-1,1.759E-1,2.21E-1,3.22E0,3.58E0,7.22159E-2,2.2086406E-1,-5.2456077E-2,1.24E0,6.091E-1,3.09E-1,1.58E0,-1.17036484E-1,1.634963E-1,4.0444586E-2,-1.2981592E-1,1.2707274E-1,-1.7162329E-1,-7.992252E-2,1.5171328E-1,3.7308328E-2],"split_indices":[5,5,4,4,4,5,5,0,0,0,6,3,4,6,0,0,0,0,0,0,0,0,0],"split_type":[0,0,0,0,0,0,0,0,0,0,0,0,0,0,0,0,0,0,0,0,0,0,0],"sum_hessian":[1.5620854E2,6.508689E1,9.112165E1,5.5508068E1,9.578826E0,8.473577E1,6.385884E0,1.7192764E0,5.378879E1,1.2280546E0,8.350771E0,6.140273E0,7.85955E1,4.4209967E0,1.9648874E0,3.9297748E0,4.4209967E0,4.9122186E0,1.2280546E0,7.466572E1,3.9297748E0,3.192942E0,1.2280546E0],"tree_param":{"num_deleted":"0","num_feature":"11","num_nodes":"23","size_leaf_vector":"1"}},{"base_weights":[-1.0287476E-1,1.9123105E0,-1.3469019E0,-1.6690892E-1,2.0069325E-1,-1.564806E-1,3.2478374E-1,3.2899223E-2,-5.8760453E-2,9.7509336E-1,-1.2454524E-1,1.931467E-2,1.555492E-1],"categories":[],"categories_nodes":[],"categories_segments":[],"categories_sizes":[],"default_left":[0,0,0,0,0,0,0,0,0,0,0,0,0],"id":1,"left_children":[1,3,5,7,-1,-1,9,-1,-1,11,-1,-1,-1],"loss_changes":[3.8508795E2,1.1874313E1,3.5087463E1,9.185403E-1,0E0,0E0,1.323843E1,0E0,0E0,3.7330723E0,0E0,0E0,0E0],"parents":[2147483647,0,0,1,1,2,2,3,3,6,6,9,9],"right_children":[2,4,6,8,-1,-1,10,-1,-1,12,-1,-1,-1],"split_conditions":[2.94E0,2.173E-1,2.941E-1,1.936E-1,2.0069325E-1,-1.564806E-1,3.55E0,3.2899223E-2,-5.8760453E-2,5.114E-1,-1.2454524E-1,1.931467E-2,1.555492E-1],"split_indices":[5,1,1,4,0,0,5,0,0,3,0,0,0],"split_type":[0,0,0,0,0,0,0,0,0,0,0,0,0],"sum_hessian":[1.5158102E2,5.765277E1,9.392825E1,2.4762297E0,5.517654E1,8.3153175E1,1.0775078E1,1.2365768E0,1.2396529E0,7.887502E0,2.8875754E0,3.9281087E0,3.9593933E0],"tree_param":{"num_deleted":"0","num_feature":"11","num_nodes":"13","size_leaf_vector":"1"}},{"base_weights":[1.335257E-2,1.4948157E0,-1.3629099E0,3.7140733E-1,1.8280666E-1,-1.4573971E0,1.9827683E-1,1.2791946E0,-5.139378E-1,-4.504653E-2,-1.4676169E-1,1.4222004E-1,-9.283066E-2,1.5416107E-1,-4.653775E-3,-1.3231854E-1,1.5900974E-1],"categories":[],"categories_nodes":[],"categories_segments":[],"categories_sizes":[],"default_left":[0,0,0,0,0,0,0,0,0,0,0,0,0,0,0,0,0],"id":2,"left_children":[1,3,5,7,-1,9,11,13,15,-1,-1,-1,-1,-1,-1,-1,-1],"loss_changes":[3.1121732E2,2.684024E1,1.1962387E1,1.5181702E1,0E0,1.0795593E-1,8.761061E0,3.2756147E0,1.8896385E1,0E0,0E0,0E0,0E0,0E0,0E0,0E0,0E0],"parents":[2147483647,0,0,1,1,2,2,3,3,5,5,6,6,7,7,8,8],"right_children":[2,4,6,8,-1,10,12,14,16,-1,-1,-1,-1,-1,-1,-1,-1],"split_conditions":[3.19E0,2.956E-1,3.314E-1,2.84E0,1.8280666E-1,3.22E0,1.58E0,1.66E0,6.091E-1,-4.504653E-2,-1.4676169E-1,1.4222004E-1,-9.283066E-2,1.5416107E-1,-4.653775E-3,-1.3231854E-1,1.5900974E-1],"split_indices":[5,1,1,5,0,5,6,6,3,0,0,0,0,0,0,0,0],"split_type":[0,0,0,0,0,0,0,0,0,0,0,0,0,0,0,0,0],"sum_hessian":[1.5064192E2,7.250671E1,7.8135216E1,1.707165E1,5.5435055E1,7.373882E1,4.39639E0,8.209351E0,8.862299E0,1.193792E0,7.254504E1,1.9813952E0,2.4149947E0,6.7169566E0,1.4923939E0,6.668573E0,2.1937263E0],"tree_param":{"num_deleted":"0","num_feature":"11","num_nodes":"17","size_leaf_vector":"1"}},{"base_weights":[8.793636E-3,-1.079347E0,1.4736971E0,-1.3879293E0,-3.91485E-1,1.6723295E-1,8.0045927E-1,-1.4296941E-1,-8.0799454E-1,9.188436E-1,-6.35986E-1,-8.177164E-2,1.3706388E0,4.689181E-2,-1.1898936E-1,-1.1153817E-2,1.2810639E-1,-1.17316484E-1,2.4344822E-2,4.4893254E-2,-8.7215185E-2,1.520946E-1,2.4798084E-2],"categories":[],"categories_nodes":[],"categories_segments":[],"categories_sizes":[],"default_left":[0,0,0,0,0,0,0,0,0,0,0,0,0,0,0,0,0,0,0,0,0,0,0],"id":3,"left_children":[1,3,5,7,9,-1,11,-1,13,15,17,19,21,-1,-1,-1,-1,-1,-1,-1,-1,-1,-1],"loss_changes":[2.4279701E2,1.800885E1,7.342514E0,2.9667664E-1,9.702272E0,0E0,8.5165615E0,0E0,3.6430926E0,1.9658818E0,1.1895404E1,3.5386164E0,1.344862E0,0E0,0E0,0E0,0E0,0E0,0E0,0E0,0E0,0E0,0E0],"parents":[2147483647,0,0,1,1,2,2,3,3,4,4,6,6,8,8,9,9,10,10,11,11,12,12],"right_children":[2,4,6,8,10,-1,12,-1,14,16,18,20,22,-1,-1,-1,-1,-1,-1,-1,-1,-1,-1],"split_conditions":[2.941E-1,2.193E-1,7.65E-2,4.849E-1,3.21E-1,1.6723295E-1,1.294E-1,-1.4296941E-1,7.229E-1,7E0,2.428E-1,1.524E-1,4.038E-1,4.689181E-2,-1.1898936E-1,-1.1153817E-2,1.2810639E-1,-1.17316484E-1,2.4344822E-2,4.4893254E-2,-8.7215185E-2,1.520946E-1,2.4798084E-2],"split_indices":[1,1,0,7,2,0,7,0,0,9,7,0,0,0,0,0,0,0,0,0,0,0,0],"split_type":[0,0,0,0,0,0,0,0,0,0,0,0,0,0,0,0,0,0,0,0,0,0,0],"sum_hessian":[1.5031946E2,8.640237E1,6.391709E1,5.894242E1,2.7459944E1,4.8209373E1,1.5707718E1,5.3615917E1,5.3265004E0,3.8844385E0,2.3575504E1,6.502726E0,9.204992E0,1.1738323E0,4.152668E0,1.1903647E0,2.694074E0,1.442834E1,9.147165E0,4.14892E0,2.3538058E0,7.8052177E0,1.3997744E0],"tree_param":{"num_deleted":"0","num_feature":"11","num_nodes":"23","size_leaf_vector":"1"}},{"base_weights":[2.5046436E-2,1.4175087E0,-1.1573728E0,1.4974808E0,1.4388825E-1,-4.573351E-1,-1.3348439E0,1.5924664E-1,1.0359883E0,-6.6434234E-1,1.23841956E-1,-9.135306E-1,1.1350775E0,-7.638787E-3,-1.3576204E-1,1.2674735E-1,-1.1617275E-3,-9.340709E-2,-6.1644153E-3,3.0156732E-2,-1.1041551E-1,1.400079E-1,3.2142755E-2],"categories":[],"categories_nodes":[],"categories_segments":[],"categories_sizes":[],"default_left":[0,0,0,0,0,0,0,0,0,0,0,0,0,0,0,0,0,0,0,0,0,0,0],"id":4,"left_children":[1,3,5,7,9,11,13,-1,15,17,-1,19,21,-1,-1,-1,-1,-1,-1,-1,-1,-1,-1],"loss_changes":[2.3788759E2,6.541565E0,9.098122E0,1.0817871E0,5.26871E0,1.3623273E1,1.6682816E0,0E0,3.2881079E0,5.1820016E-1,0E0,3.5807762E0,4.7802544E-1,0E0,0E0,0E0,0E0,0E0,0E0,0E0,0E0,0E0,0E0],"parents":[2147483647,0,0,1,1,2,2,3,3,4,4,5,5,6,6,8,8,9,9,11,11,12,12],"right_children":[2,4,6,8,10,12,14,-1,16,18,-1,20,22,-1,-1,-1,-1,-1,-1,-1,-1,-1,-1],"split_conditions":[3.06E0,2.94E0,3.45E0,2.68E0,1.861E-1,6.721E-1,9.51E-2,1.5924664E-1,1.7E0,2.4242E-1,1.23841956E-1,1.83E-2,5.099E-1,-7.638787E-3,-1.3576204E-1,1.2674735E-1,-1.1617275E-3,-9.340709E-2,-6.1644153E-3,3.0156732E-2,-1.1041551E-1,1.400079E-1,3.2142755E-2],"split_indices":[5,5,5,5,7,3,0,0,6,8,0,0,0,0,0,0,0,0,0,0,0,0,0],"split_type":[0,0,0,0,0,0,0,0,0,0,0,0,0,0,0,0,0,0,0,0,0,0,0],"sum_hessian":[1.424866E2,6.534041E1,7.7146194E1,6.131463E1,4.0257816E0,1.6325788E1,6.0820408E1,4.8816418E1,1.2498212E1,2.5418487E0,1.4839327E0,1.3021658E1,3.3041306E0,1.1586052E0,5.96618E1,1.0064439E1,2.4337738E0,1.3761559E0,1.1656929E0,1.6868935E0,1.13347645E1,1.948708E0,1.3554225E0],"tree_param":{"num_deleted":"0","num_feature":"11","num_nodes":"23","size_leaf_vector":"1"}},{"base_weights":[4.5918718E-2,1.4082152E0,-7.5239646E-1,5.998314E-1,1.4945912E-1,-1.1004468E0,9.59562E-2,1.1764562E-1,-1.7928095E-1,-3.7002537E-1,-1.2138497E0,-7.290905E-1,6.9417185E-1,-6.73167E-2,4.8186433E-2,-8.932649E-2,6.869375E-2,-1.265606E-1,-7.595357E-2,-9.877768E-3,-1.2364899E-1,1.0208497E-1,-7.279509E-3],"categories":[],"categories_nodes":[],"categories_segments":[],"categories_sizes":[],"default_left":[0,0,0,0,0,0,0,0,0,0,0,0,0,0,0,0,0,0,0,0,0,0,0],"id":5,"left_children":[1,3,5,7,-1,9,11,-1,13,15,17,19,21,-1,-1,-1,-1,-1,-1,-1,-1,-1,-1],"loss_changes":[1.5378242E2,2.7508087E0,2.6442009E1,3.2267232E0,0E0,4.7963257E0,1.3766837E1,0E0,1.5400169E0,6.1159143E0,3.1734467E-1,3.6455326E0,4.1049633E0,0E0,0E0,0E0,0E0,0E0,0E0,0E0,0E0,0E0,0E0],"parents":[2147483647,0,0,1,1,2,2,3,3,5,5,6,6,8,8,9,9,10,10,11,11,12,12],"right_children":[2,4,6,8,-1,10,12,-1,14,16,18,20,22,-1,-1,-1,-1,-1,-1,-1,-1,-1,-1],"split_conditions":[8.33E-2,2.944E-1,2.502E-1,-4.7E-2,1.4945912E-1,3.167E-1,1.294E-1,1.1764562E-1,2.133E-1,1.375E-1,4.489E-1,5.105E-1,7.333E-1,-6.73167E-2,4.8186433E-2,-8.932649E-2,6.869375E-2,-1.265606E-1,-7.595357E-2,-9.877768E-3,-1.2364899E-1,1.0208497E-1,-7.279509E-3],"split_indices":[0,4,4,0,0,0,7,0,10,7,7,2,3,0,0,0,0,0,0,0,0,0,0],"split_type":[0,0,0,0,0,0,0,0,0,0,0,0,0,0,0,0,0,0,0,0,0,0,0],"sum_hessian":[1.3942941E2,5.1234898E1,8.819451E1,5.7128997E0,4.5521996E1,6.232679E1,2.5867725E1,2.9899948E0,2.7229052E0,8.949097E0,5.3377693E1,1.0780587E1,1.5087138E1,1.5481955E0,1.1747098E0,6.089448E0,2.8596487E0,4.631559E1,7.062104E0,5.3407536E0,5.4398336E0,1.0348382E1,4.738756E0],"tree_param":{"num_deleted":"0","num_feature":"11","num_nodes":"23","size_leaf_vector":"1"}},{"base_weights":[-3.5776637E-2,1.1694759E0,-1.181595E0,-6.3122725E-1,1.3101522E0,-1.2464273E0,4.2826462E-1,-1.234315E-1,6.364867E-2,6.775427E-1,1.4362552E0,-2.1398423E-2,-1.2686994E0,-4.1131508E-2,1.0389259E-1,8.610778E-3,1.4452165E-1,3.588828E-2,1.4535117E-1,-1.308004E-1,-8.109467E-2],"categories":[],"categories_nodes":[],"categories_segments":[],"categories_sizes":[],"default_left":[0,0,0,0,0,0,0,0,0,0,0,0,0,0,0,0,0,0,0,0,0],"id":6,"left_children":[1,3,5,7,9,11,13,-1,-1,15,17,-1,19,-1,-1,-1,-1,-1,-1,-1,-1],"loss_changes":[1.818115E2,1.7084045E1,7.576187E0,4.8569984E0,3.8014755E0,1.2258911E0,2.1481557E0,0E0,0E0,5.2516017E0,3.8957214E-1,0E0,8.2466125E-2,0E0,0E0,0E0,0E0,0E0,0E0,0E0,0E0],"parents":[2147483647,0,0,1,1,2,2,3,3,4,4,5,5,6,6,9,9,10,10,12,12],"right_children":[2,4,6,8,10,12,14,-1,-1,16,18,-1,20,-1,-1,-1,-1,-1,-1,-1,-1],"split_conditions":[3.19E0,2.173E-1,3.676E-1,2.354E-1,2.956E-1,3.22E0,2.4289E-1,-1.234315E-1,6.364867E-2,1.861E-1,6.6E-3,-2.1398423E-2,2.797E-1,-4.1131508E-2,1.0389259E-1,8.610778E-3,1.4452165E-1,3.588828E-2,1.4535117E-1,-1.308004E-1,-8.109467E-2],"split_indices":[5,1,4,7,1,5,8,0,0,7,7,0,4,0,0,0,0,0,0,0,0],"split_type":[0,0,0,0,0,0,0,0,0,0,0,0,0,0,0,0,0,0,0,0,0],"sum_hessian":[1.2965141E2,6.3176876E1,6.647454E1,4.325241E0,5.8851635E1,6.4118126E1,2.3564146E0,2.948772E0,1.3764689E0,1.0840754E1,4.8010883E1,1.5779608E0,6.2540165E1,1.1296862E0,1.2267283E0,6.7514424E0,4.089311E0,1.100503E0,4.6910378E1,5.5884277E1,6.6558886E0],"tree_param":{"num_deleted":"0","num_feature":"11","num_nodes":"21","size_leaf_vector":"1"}},{"base_weights":[2.1762399E-3,1.2135559E0,-9.782281E-1,1.3776906E-1,7.686066E-1,-1.2270533E0,-3.924315E-2,1.8300651E-1,1.1625772E0,-5.3482026E-1,-1.2495875E-1,-6.9039446E-1,1.0342414E0,-5.618305E-2,1.2877156E-1,1.2734793E-1,1.6421603E-2,-8.071387E-2,3.4926857E-3,-1.10863686E-1,5.4338958E-2,1.3266806E-1,-2.3067074E-2],"categories":[],"categories_nodes":[],"categories_segments":[],"categories_sizes":[],"default_left":[0,0,0,0,0,0,0,0,0,0,0,0,0,0,0,0,0,0,0,0,0,0,0],"id":7,"left_children":[1,3,5,-1,7,9,11,13,15,17,-1,19,21,-1,-1,-1,-1,-1,-1,-1,-1,-1,-1],"loss_changes":[1.494665E2,3.0523148E0,1.6203644E1,0E0,3.808918E0,1.8891907E-1,1.1621422E1,7.468748E0,9.240017E-1,5.682406E-1,0E0,5.9238453E0,2.6334372E0,0E0,0E0,0E0,0E0,0E0,0E0,0E0,0E0,0E0,0E0],"parents":[2147483647,0,0,1,1,2,2,4,4,5,5,6,6,7,7,8,8,9,9,11,11,12,12],"right_children":[2,4,6,-1,8,10,12,14,16,18,-1,20,22,-1,-1,-1,-1,-1,-1,-1,-1,-1,-1],"split_conditions":[3.06E0,2.68E0,2.797E-1,1.3776906E-1,2.88E-1,3.17E0,2.01E-1,3.046E-1,2.725E-1,3.12E0,-1.2495875E-1,3.885E-1,3.58E0,-5.618305E-2,1.2877156E-1,1.2734793E-1,1.6421603E-2,-8.071387E-2,3.4926857E-3,-1.10863686E-1,5.4338958E-2,1.3266806E-1,-2.3067074E-2],"split_indices":[5,5,4,0,4,5,7,0,10,5,0,4,5,0,0,0,0,0,0,0,0,0,0],"split_type":[0,0,0,0,0,0,0,0,0,0,0,0,0,0,0,0,0,0,0,0,0,0,0],"sum_hessian":[1.23851906E2,5.5293674E1,6.8558235E1,3.8861877E1,1.6431799E1,5.395398E1,1.4604254E1,7.197665E0,9.234133E0,2.4807644E0,5.1473217E1,9.312418E0,5.291835E0,4.5925884E0,2.6050768E0,8.062902E0,1.1712308E0,1.3965858E0,1.0841787E0,7.0305533E0,2.2818651E0,4.258473E0,1.0333622E0],"tree_param":{"num_deleted":"0","num_feature":"11","num_nodes":"23","size_leaf_vector":"1"}},{"base_weights":[7.323058E-3,1.045464E0,-1.1073253E0,2.4763921E-1,1.3122426E-1,-1.1991372E0,6.798267E-2,-1.9090104E-1,1.2994628E-1,-5.5366635E-1,-1.2238554E-1,-3.5228267E-1,8.008114E-2,1.2105148E-1,-1.0257175E-1,-8.515376E-2,1.253473E-2,3.68761E-2,-9.078834E-2],"categories":[],"categories_nodes":[],"categories_segments":[],"categories_sizes":[],"default_left":[0,0,0,0,0,0,0,0,0,0,0,0,0,0,0,0,0,0,0],"id":8,"left_children":[1,3,5,7,-1,9,11,13,-1,15,-1,17,-1,-1,-1,-1,-1,-1,-1],"loss_changes":[1.380287E2,1.2819542E1,6.2888565E0,7.955041E0,0E0,1.7453766E-1,1.8572655E0,1.6057299E1,0E0,8.745172E-1,0E0,1.9151566E0,0E0,0E0,0E0,0E0,0E0,0E0,0E0],"parents":[2147483647,0,0,1,1,2,2,3,3,5,5,6,6,7,7,9,9,11,11],"right_children":[2,4,6,8,-1,10,12,14,-1,16,-1,18,-1,-1,-1,-1,-1,-1,-1],"split_conditions":[3.22E0,2.956E-1,3.256E-1,5.881E-1,1.3122426E-1,3.32E0,3.019E-1,2.63E0,1.2994628E-1,5.37E-1,-1.2238554E-1,9.51E-2,8.008114E-2,1.2105148E-1,-1.0257175E-1,-8.515376E-2,1.253473E-2,3.68761E-2,-9.078834E-2],"split_indices":[5,1,1,3,0,5,0,5,0,3,0,0,0,0,0,0,0,0,0],"split_type":[0,0,0,0,0,0,0,0,0,0,0,0,0,0,0,0,0,0,0],"sum_hessian":[1.1728163E2,6.075697E1,5.6524662E1,1.5708268E1,4.5048702E1,5.2410236E1,4.1144247E0,1.1663762E1,4.044506E0,2.7960262E0,4.9614212E1,2.9448724E0,1.1695524E0,4.186239E0,7.477524E0,1.7668569E0,1.0291692E0,1.4279723E0,1.5169E0],"tree_param":{"num_deleted":"0","num_feature":"11","num_nodes":"19","size_leaf_vector":"1"}},{"base_weights":[3.4435403E-2,1.1878309E0,-8.2403076E-1,1.9086512E-2,1.2182807E0,-1.1210964E0,1.5410765E-1,1.2413915E0,2.94084E-2,-4.6112573E-1,-1.17863394E-1,-5.5891913E-1,9.337318E-1,1.254506E-1,3.3675294E-2,-1.035188E-1,5.1039744E-2,-9.8229855E-2,6.201858E-2,1.24835014E-1,-3.56073E-2],"categories":[],"categories_nodes":[],"categories_segments":[],"categories_sizes":[],"default_left":[0,0,0,0,0,0,0,0,0,0,0,0,0,0,0,0,0,0,0,0,0],"id":9,"left_children":[1,3,5,-1,7,9,11,13,-1,15,-1,17,19,-1,-1,-1,-1,-1,-1,-1,-1],"loss_changes":[1.11304146E2,1.2232285E0,1.8905552E1,0E0,6.248474E-1,1.3388748E0,9.359188E0,1.1029816E-1,0E0,3.6615124E0,0E0,5.0666175E0,3.678111E0,0E0,0E0,0E0,0E0,0E0,0E0,0E0,0E0],"parents":[2147483647,0,0,1,1,2,2,4,4,5,5,6,6,7,7,9,9,11,11,12,12],"right_children":[2,4,6,-1,8,10,12,14,-1,16,-1,18,20,-1,-1,-1,-1,-1,-1,-1,-1],"split_conditions":[2.94E0,1.644E-1,2.786E-1,1.9086512E-2,2.9E0,3.22E0,1.688E-1,2.974E-1,2.94084E-2,5.255E-1,-1.17863394E-1,3.885E-1,3.6E0,1.254506E-1,3.3675294E-2,-1.035188E-1,5.1039744E-2,-9.8229855E-2,6.201858E-2,1.24835014E-1,-3.56073E-2],"split_indices":[5,4,4,0,5,5,7,10,0,3,0,4,5,0,0,0,0,0,0,0,0],"split_type":[0,0,0,0,0,0,0,0,0,0,0,0,0,0,0,0,0,0,0,0,0],"sum_hessian":[1.1042274E2,4.6953934E1,6.3468803E1,1.6069945E0,4.534694E1,4.8571304E1,1.4897501E1,4.39058E1,1.4411395E0,4.617844E0,4.395346E1,7.9289513E0,6.9685497E0,4.289718E1,1.008623E0,2.8614905E0,1.7563536E0,5.9569206E0,1.9720305E0,5.627894E0,1.3406558E0],"tree_param":{"num_deleted":"0","num_feature":"11","num_nodes":"21","size_leaf_vector":"1"}},{"base_weights":[-1.5397024E-3,-7.847508E-1,1.0203124E0,-1.0884448E0,-1.8789503E-1,3.7487733E-1,1.1385199E0,-3.3543196E-2,-1.1034166E-1,6.11523E-1,-4.4379762E-1,4.4418044E-2,8.908406E-2,8.374779E-3,1.1676545E0,8.301783E-2,-3.7211445E-4,-9.8588526E-2,2.7992696E-2,3.7241183E-2,-7.319149E-2,1.193105E-1,3.6632273E-2],"categories":[],"categories_nodes":[],"categories_segments":[],"categories_sizes":[],"default_left":[0,0,0,0,0,0,0,0,0,0,0,0,0,0,0,0,0,0,0,0,0,0,0],"id":10,"left_children":[1,3,5,7,9,11,13,-1,-1,15,17,19,-1,-1,21,-1,-1,-1,-1,-1,-1,-1,-1],"loss_changes":[8.800326E1,1.107851E1,3.2133636E0,9.263229E-2,4.812993E0,1.4738982E0,1.1263618E0,0E0,0E0,7.838614E-1,7.101015E0,1.9183539E0,0E0,0E0,3.5193634E-1,0E0,0E0,0E0,0E0,0E0,0E0,0E0,0E0],"parents":[2147483647,0,0,1,1,2,2,3,3,4,4,5,5,6,6,9,9,10,10,11,11,14,14],"right_children":[2,4,6,8,10,12,14,-1,-1,16,18,20,-1,-1,22,-1,-1,-1,-1,-1,-1,-1,-1],"split_conditions":[2.921E-1,2.193E-1,3.334E-1,9.3E-3,3.661E-1,2.175E-1,3.9E-3,-3.3543196E-2,-1.1034166E-1,3.0446E-1,2.142E-1,4.938E-1,8.908406E-2,8.374779E-3,6.331E-1,8.301783E-2,-3.7211445E-4,-9.8588526E-2,2.7992696E-2,3.7241183E-2,-7.319149E-2,1.193105E-1,3.6632273E-2],"split_indices":[1,1,1,10,2,7,7,0,0,8,7,2,0,0,2,0,0,0,0,0,0,0,0],"split_type":[0,0,0,0,0,0,0,0,0,0,0,0,0,0,0,0,0,0,0,0,0,0,0],"sum_hessian":[1.0795882E2,6.124719E1,4.6711628E1,4.004681E1,2.1200377E1,7.87639E0,3.8835236E1,1.2369658E0,3.8809845E1,4.803859E0,1.6396519E1,5.463358E0,2.413032E0,1.1480091E0,3.768723E1,3.2865014E0,1.5173576E0,9.167555E0,7.228964E0,4.2064595E0,1.2568982E0,3.605327E1,1.6339587E0],"tree_param":{"num_deleted":"0","num_feature":"11","num_nodes":"23","size_leaf_vector":"1"}},{"base_weights":[-2.246074E-2,1.1031765E0,-9.0439415E-1,5.400442E-1,1.2281469E-1,-1.0562209E0,3.3977073E-1,1.09590076E-1,5.7689756E-2,-4.3126985E-1,-1.1053616E0,8.913496E-1,-4.8705307E-1,-9.436782E-2,9.897473E-2,-8.521109E-2,5.913004E-2,-1.1382594E-1,-5.448962E-2,3.1071117E-2,1.1117989E-1,1.3823367E-2,-8.3930984E-2],"categories":[],"categories_nodes":[],"categories_segments":[],"categories_sizes":[],"default_left":[0,0,0,0,0,0,0,0,0,0,0,0,0,0,0,0,0,0,0,0,0,0,0],"id":11,"left_children":[1,3,5,7,-1,9,11,-1,13,15,17,19,21,-1,-1,-1,-1,-1,-1,-1,-1,-1,-1],"loss_changes":[9.7044785E1,2.359562E0,1.0709831E1,2.5069187E0,0E0,1.0305786E0,3.4971373E0,0E0,6.7092614E0,2.749238E0,2.0694733E-1,2.1545792E-1,8.5041994E-1,0E0,0E0,0E0,0E0,0E0,0E0,0E0,0E0,0E0,0E0],"parents":[2147483647,0,0,1,1,2,2,3,3,5,5,6,6,8,8,9,9,10,10,11,11,12,12],"right_children":[2,4,6,8,-1,10,12,-1,14,16,18,20,22,-1,-1,-1,-1,-1,-1,-1,-1,-1,-1],"split_conditions":[3.01E0,2.798E-1,3.217E-1,2.63E0,1.2281469E-1,3.19E0,1.62E0,1.09590076E-1,5.178E-1,5.881E-1,2.702E-1,4.961E-1,3.38E0,-9.436782E-2,9.897473E-2,-8.521109E-2,5.913004E-2,-1.1382594E-1,-5.448962E-2,3.1071117E-2,1.1117989E-1,1.3823367E-2,-8.3930984E-2],"split_indices":[5,1,1,5,0,5,6,0,3,3,10,3,5,0,0,0,0,0,0,0,0,0,0],"split_type":[0,0,0,0,0,0,0,0,0,0,0,0,0,0,0,0,0,0,0,0,0,0,0],"sum_hessian":[9.574976E1,4.195303E1,5.379673E1,8.585789E0,3.336724E1,4.8080482E1,5.716249E0,3.398006E0,5.187783E0,4.2177052E0,4.3862778E1,3.3820343E0,2.334215E0,2.494894E0,2.6928887E0,3.1060858E0,1.1116195E0,4.0457134E1,3.4056427E0,1.5937424E0,1.7882918E0,1.0600716E0,1.2741435E0],"tree_param":{"num_deleted":"0","num_feature":"11","num_nodes":"23","size_leaf_vector":"1"}},{"base_weights":[4.4896793E-2,1.053812E0,-8.432124E-1,1.1147218E0,3.1146052E-1,8.301141E-2,-9.262691E-1,4.5851308E-1,1.1620102E-1,-5.0936718E-2,1.0079247E-1,-1.0602587E0,-3.682275E-1,-4.383836E-2,8.642648E-2,-3.693195E-2,-1.1068193E-1,-1.0478669E-1,3.0973583E-2],"categories":[],"categories_nodes":[],"categories_segments":[],"categories_sizes":[],"default_left":[0,0,0,0,0,0,0,0,0,0,0,0,0,0,0,0,0,0,0],"id":12,"left_children":[1,3,5,7,9,-1,11,13,-1,-1,-1,15,17,-1,-1,-1,-1,-1,-1],"loss_changes":[8.646621E1,1.6946602E0,7.9056473E0,7.5019836E-1,3.2642787E0,0E0,3.3029213E0,1.9913852E0,0E0,0E0,0E0,8.5549927E-1,5.43719E0,0E0,0E0,0E0,0E0,0E0,0E0],"parents":[2147483647,0,0,1,1,2,2,3,3,4,4,6,6,7,7,11,11,12,12],"right_children":[2,4,6,8,10,-1,12,14,-1,-1,-1,16,18,-1,-1,-1,-1,-1,-1],"split_conditions":[3.06E0,2.94E0,1.83E-2,2.71E-2,1.861E-1,8.301141E-2,2.797E-1,3.351E-1,1.1620102E-1,-5.0936718E-2,1.0079247E-1,3.22E0,1.294E-1,-4.383836E-2,8.642648E-2,-3.693195E-2,-1.1068193E-1,-1.0478669E-1,3.0973583E-2],"split_indices":[5,5,0,7,7,0,4,4,0,0,0,5,7,0,0,0,0,0,0],"split_type":[0,0,0,0,0,0,0,0,0,0,0,0,0,0,0,0,0,0,0],"sum_hessian":[9.4507866E1,4.4157368E1,5.0350502E1,4.034543E1,3.8119388E0,1.9556594E0,4.8394844E1,3.4309661E0,3.6914463E1,1.8730581E0,1.9388808E0,3.829902E1,1.0095822E1,1.0436343E0,2.3873317E0,2.981836E0,3.5317184E1,4.769212E0,5.326611E0],"tree_param":{"num_deleted":"0","num_feature":"11","num_nodes":"19","size_leaf_vector":"1"}},{"base_weights":[-3.670717E-3,-7.706869E-1,9.313126E-1,-9.74649E-1,-2.0827389E-1,1.1474115E-1,5.517136E-1,-6.9117183E-3,-1.0009693E0,-6.712085E-1,4.5893806E-1,1.5780927E-1,9.6214604E-1,-1.029522E-1,-1.9711098E-2,2.3135148E-2,-8.7364614E-2,8.973622E-2,-4.4793747E-2,-4.7329694E-2,7.9317294E-2,1.4270428E-2,1.0778095E-1],"categories":[],"categories_nodes":[],"categories_segments":[],"categories_sizes":[],"default_left":[0,0,0,0,0,0,0,0,0,0,0,0,0,0,0,0,0,0,0,0,0,0,0],"id":13,"left_children":[1,3,5,7,9,-1,11,-1,13,15,17,19,21,-1,-1,-1,-1,-1,-1,-1,-1,-1,-1],"loss_changes":[6.2509007E1,5.2893753E0,2.5893326E0,7.6179504E-1,4.6367803E0,0E0,2.463438E0,0E0,5.730057E-1,1.7880464E0,2.9205685E0,4.164948E0,5.784435E-1,0E0,0E0,0E0,0E0,0E0,0E0,0E0,0E0,0E0,0E0],"parents":[2147483647,0,0,1,1,2,2,3,3,4,4,6,6,8,8,9,9,10,10,11,11,12,12],"right_children":[2,4,6,8,10,-1,12,-1,14,16,18,20,22,-1,-1,-1,-1,-1,-1,-1,-1,-1,-1],"split_conditions":[2.867E-1,2.312E-1,3.982E-1,2.719E-1,1.984E-1,1.1474115E-1,3.984E-1,-6.9117183E-3,1.95E0,3.326E-1,7.906E-1,1.515E-1,3.18E-2,-1.029522E-1,-1.9711098E-2,2.3135148E-2,-8.7364614E-2,8.973622E-2,-4.4793747E-2,-4.7329694E-2,7.9317294E-2,1.4270428E-2,1.0778095E-1],"split_indices":[1,1,3,2,7,0,1,0,6,3,3,7,10,0,0,0,0,0,0,0,0,0,0],"split_type":[0,0,0,0,0,0,0,0,0,0,0,0,0,0,0,0,0,0,0,0,0,0,0],"sum_hessian":[8.516256E1,4.6880077E1,3.8282482E1,3.386557E1,1.3014506E1,2.3105976E1,1.5176505E1,1.0589545E0,3.2806618E1,7.679922E0,5.334584E0,8.450654E0,6.7258515E0,3.1410215E1,1.3963997E0,1.3808097E0,6.2991123E0,3.6031504E0,1.7314337E0,4.3674984E0,4.0831556E0,1.1082201E0,5.6176314E0],"tree_param":{"num_deleted":"0","num_feature":"11","num_nodes":"23","size_leaf_vector":"1"}},{"base_weights":[-1.6159913E-2,9.899568E-1,-7.570751E-1,3.7432596E-1,1.1410397E-1,-9.193844E-1,3.0191362E-1,7.47861E-1,-4.121445E-1,-3.1731087E-1,-1.0657424E-1,8.049123E-1,-5.880768E-1,-2.2989167E-2,1.0315295E-1,-7.2641425E-2,1.4607963E-2,-9.932857E-2,1.0568801E-1,8.889613E-3,1.0194707E-1,-1.2032497E-2,-7.496944E-2],"categories":[],"categories_nodes":[],"categories_segments":[],"categories_sizes":[],"default_left":[0,0,0,0,0,0,0,0,0,0,0,0,0,0,0,0,0,0,0,0,0,0,0],"id":14,"left_children":[1,3,5,7,-1,9,11,13,15,17,-1,19,21,-1,-1,-1,-1,-1,-1,-1,-1,-1,-1],"loss_changes":[6.2132336E1,2.8613205E0,8.526003E0,2.7921078E0,0E0,3.3502846E0,3.6653779E0,1.9256189E0,6.9685537E-1,9.976158E0,0E0,6.7410445E-1,1.4811766E-1,0E0,0E0,0E0,0E0,0E0,0E0,0E0,0E0,0E0,0E0],"parents":[2147483647,0,0,1,1,2,2,3,3,5,5,6,6,7,7,8,8,9,9,11,11,12,12],"right_children":[2,4,6,8,-1,10,12,14,16,18,-1,20,22,-1,-1,-1,-1,-1,-1,-1,-1,-1,-1],"split_conditions":[2.96E0,2.798E-1,3.256E-1,1.66E0,1.1410397E-1,3.32E0,1.62E0,1.3187E-1,1.205E-1,6.387E-1,-1.0657424E-1,6E0,4.852E-1,-2.2989167E-2,1.0315295E-1,-7.2641425E-2,1.4607963E-2,-9.932857E-2,1.0568801E-1,8.889613E-3,1.0194707E-1,-1.2032497E-2,-7.496944E-2],"split_indices":[5,1,1,6,0,5,6,8,0,3,0,9,2,0,0,0,0,0,0,0,0,0,0],"split_type":[0,0,0,0,0,0,0,0,0,0,0,0,0,0,0,0,0,0,0,0,0,0,0],"sum_hessian":[8.134368E1,3.4355255E1,4.6988426E1,7.4550653E0,2.6900188E1,4.0858017E1,6.1304083E0,5.087733E0,2.3673325E0,8.6094265E0,3.2248592E1,3.9778364E0,2.152572E0,1.1867615E0,3.9009712E0,1.321857E0,1.0454756E0,5.9565434E0,2.6528833E0,1.2432452E0,2.734591E0,1.0007415E0,1.1518306E0],"tree_param":{"num_deleted":"0","num_feature":"11","num_nodes":"23","size_leaf_vector":"1"}},{"base_weights":[4.3074233E-3,-7.303747E-1,8.4420425E-1,6.895765E-2,-7.868541E-1,1.0711133E0,3.3747587E-1,-9.45352E-1,-3.752719E-1,1.444448E-2,1.1219328E-1,-1.9559368E-1,8.2181555E-1,-1.0111268E-1,-1.9425113E-2,-5.7436813E-2,7.15131E-2,1.76458E-2,-8.1332035E-2,3.5177437E-3,1.027413E-1],"categories":[],"categories_nodes":[],"categories_segments":[],"categories_sizes":[],"default_left":[0,0,0,0,0,0,0,0,0,0,0,0,0,0,0,0,0,0,0,0,0],"id":15,"left_children":[1,3,5,-1,7,9,11,13,15,-1,-1,17,19,-1,-1,-1,-1,-1,-1,-1,-1],"loss_changes":[4.9455944E1,3.9714603E0,3.93812E0,0E0,2.3581257E0,1.0326023E0,3.5237985E0,1.2543716E0,3.2808456E0,0E0,0E0,1.7542889E0,1.0987263E0,0E0,0E0,0E0,0E0,0E0,0E0,0E0,0E0],"parents":[2147483647,0,0,1,1,2,2,4,4,5,5,6,6,7,7,8,8,11,11,12,12],"right_children":[2,4,6,-1,8,10,12,14,16,-1,-1,18,20,-1,-1,-1,-1,-1,-1,-1,-1],"split_conditions":[2.855E-1,-3.61E-2,7.65E-2,6.895765E-2,2.312E-1,3.153E-1,1.475E-1,4.849E-1,3.446E-1,1.444448E-2,1.1219328E-1,1.7E-1,8.3E-1,-1.0111268E-1,-1.9425113E-2,-5.7436813E-2,7.15131E-2,1.76458E-2,-8.1332035E-2,3.5177437E-3,1.027413E-1],"split_indices":[1,0,0,0,1,1,7,7,7,0,0,0,6,0,0,0,0,0,0,0,0],"split_type":[0,0,0,0,0,0,0,0,0,0,0,0,0,0,0,0,0,0,0,0,0],"sum_hessian":[7.814884E1,4.1754963E1,3.6393875E1,1.1684929E0,4.0586468E1,2.4368202E1,1.2025674E1,2.8366013E1,1.2220458E1,1.4666595E0,2.2901543E1,6.0086513E0,6.0170226E0,2.5763664E1,2.6023479E0,1.0733825E1,1.4866335E0,4.1958613E0,1.8127898E0,1.4894238E0,4.527599E0],"tree_param":{"num_deleted":"0","num_feature":"11","num_nodes":"21","size_leaf_vector":"1"}},{"base_weights":[2.0989865E-2,-8.9333344E-1,6.307129E-1,-9.477632E-1,-2.2659588E-3,1.0296495E0,1.8701524E-1,-5.0190254E-3,-9.803345E-1,3.4058028E-1,1.0967334E-1,-4.9281874E-1,6.518012E-1,-2.4150066E-2,-1.0020854E-1,7.4942246E-2,-3.2127272E-2,-6.864732E-2,5.04197E-2,8.789358E-2,8.400884E-3],"categories":[],"categories_nodes":[],"categories_segments":[],"categories_sizes":[],"default_left":[0,0,0,0,0,0,0,0,0,0,0,0,0,0,0,0,0,0,0,0,0],"id":16,"left_children":[1,3,5,7,-1,9,11,-1,13,15,-1,17,19,-1,-1,-1,-1,-1,-1,-1,-1],"loss_changes":[4.0705833E1,1.3633423E0,7.5577087E0,7.541084E-1,0E0,6.819649E-1,7.2574015E0,0E0,1.8323517E-1,1.1813905E0,0E0,2.1770844E0,1.6631184E0,0E0,0E0,0E0,0E0,0E0,0E0,0E0,0E0],"parents":[2147483647,0,0,1,1,2,2,3,3,5,5,6,6,8,8,9,9,11,11,12,12],"right_children":[2,4,6,8,-1,10,12,-1,14,16,-1,18,20,-1,-1,-1,-1,-1,-1,-1,-1],"split_conditions":[2.312E-1,1.92E0,7.02E-2,2.962E-1,-2.2659588E-3,2.994E-1,1.294E-1,-5.0190254E-3,1.51E-2,-3.61E-2,1.0967334E-1,3.984E-1,1.56E0,-2.4150066E-2,-1.0020854E-1,7.4942246E-2,-3.2127272E-2,-6.864732E-2,5.04197E-2,8.789358E-2,8.400884E-3],"split_indices":[1,6,0,3,0,1,7,0,10,0,0,1,6,0,0,0,0,0,0,0,0],"split_type":[0,0,0,0,0,0,0,0,0,0,0,0,0,0,0,0,0,0,0,0,0],"sum_hessian":[7.100636E1,2.8221325E1,4.2785038E1,2.6477552E1,1.7437727E0,2.183352E1,2.0951517E1,1.016155E0,2.5461397E1,2.4761438E0,1.9357376E1,8.483112E0,1.2468406E1,1.0742521E0,2.4387146E1,1.4488473E0,1.0272964E0,7.3642044E0,1.1189075E0,8.514396E0,3.9540102E0],"tree_param":{"num_deleted":"0","num_feature":"11","num_nodes":"21","size_leaf_vector":"1"}},{"base_weights":[2.85762E-4,8.851942E-1,-7.414959E-1,3.9803767E-1,1.0658535E0,-9.874156E-1,-1.2118537E-1,-5.820616E-1,8.0454254E-1,2.5773928E-2,1.0950638E-1,-1.0471596E-1,-4.7930962E-1,-5.679752E-1,7.312628E-1,1.1427829E-2,-9.105908E-2,1.0569646E-1,1.28638325E-2,3.8071837E-2,-8.137121E-2,-7.7548824E-2,3.5207488E-2,1.09303676E-1,-2.5222639E-2],"categories":[],"categories_nodes":[],"categories_segments":[],"categories_sizes":[],"default_left":[0,0,0,0,0,0,0,0,0,0,0,0,0,0,0,0,0,0,0,0,0,0,0,0,0],"id":17,"left_children":[1,3,5,7,9,11,13,15,17,-1,-1,-1,19,21,23,-1,-1,-1,-1,-1,-1,-1,-1,-1,-1],"loss_changes":[4.6814823E1,2.437994E0,5.7987804E0,4.609414E0,2.637062E-1,3.3722878E-1,5.044527E0,9.3389034E-1,1.1891174E0,0E0,0E0,0E0,1.6765758E0,1.9030318E0,1.918386E0,0E0,0E0,0E0,0E0,0E0,0E0,0E0,0E0,0E0,0E0],"parents":[2147483647,0,0,1,1,2,2,3,3,4,4,5,5,6,6,7,7,8,8,12,12,13,13,14,14],"right_children":[2,4,6,8,10,12,14,16,18,-1,-1,-1,20,22,24,-1,-1,-1,-1,-1,-1,-1,-1,-1,-1],"split_conditions":[3.06E0,2.798E-1,2.724E-1,7.71E-2,1.06E-2,4.489E-1,2.175E-1,5.53E-2,2.89E0,2.5773928E-2,1.0950638E-1,-1.0471596E-1,8.613E-1,3.984E-1,3.58E0,1.1427829E-2,-9.105908E-2,1.0569646E-1,1.28638325E-2,3.8071837E-2,-8.137121E-2,-7.7548824E-2,3.5207488E-2,1.09303676E-1,-2.5222639E-2],"split_indices":[5,1,1,7,7,7,7,0,5,0,0,0,3,1,5,0,0,0,0,0,0,0,0,0,0],"split_type":[0,0,0,0,0,0,0,0,0,0,0,0,0,0,0,0,0,0,0,0,0,0,0,0,0],"sum_hessian":[6.931967E1,3.1522078E1,3.77976E1,9.393985E0,2.2128092E1,2.6643198E1,1.1154401E1,2.6273856E0,6.7665997E0,1.1146455E0,2.1013447E1,2.2890757E1,3.752441E0,7.5375113E0,3.6168895E0,1.0512794E0,1.5761062E0,4.516206E0,2.2503936E0,1.0117874E0,2.7406535E0,6.2785397E0,1.2589717E0,2.5627878E0,1.0541016E0],"tree_param":{"num_deleted":"0","num_feature":"11","num_nodes":"25","size_leaf_vector":"1"}},{"base_weights":[5.5919576E-2,8.285937E-1,-8.158842E-1,1.0915251E-1,4.364681E-1,-3.6275348E-1,-1.0188153E-1,7.307555E-2,1.1220979E-1,-7.149886E-1,3.7982363E-1,-5.3651508E-2,2.7368505E-2,3.6056112E-2,-9.3908556E-2,7.950602E-2,-5.5157873E-3],"categories":[],"categories_nodes":[],"categories_segments":[],"categories_sizes":[],"default_left":[0,0,0,0,0,0,0,0,0,0,0,0,0,0,0,0,0],"id":18,"left_children":[1,3,5,-1,7,9,-1,11,-1,13,15,-1,-1,-1,-1,-1,-1],"loss_changes":[4.577477E1,3.2341175E0,2.5693626E0,0E0,3.9322991E0,3.263567E0,0E0,1.5654151E0,0E0,2.2922769E0,8.265429E-1,0E0,0E0,0E0,0E0,0E0,0E0],"parents":[2147483647,0,0,1,1,2,2,4,4,5,5,7,7,9,9,10,10],"right_children":[2,4,6,-1,8,10,-1,12,-1,14,16,-1,-1,-1,-1,-1,-1],"split_conditions":[3.22E0,2.68E0,3.6E0,1.0915251E-1,2.354E-1,6.721E-1,-1.0188153E-1,3.074E-1,1.1220979E-1,-1.03E-2,1.204E-1,-5.3651508E-2,2.7368505E-2,3.6056112E-2,-9.3908556E-2,7.950602E-2,-5.5157873E-3],"split_indices":[5,5,5,0,7,3,0,2,0,0,10,0,0,0,0,0,0],"split_type":[0,0,0,0,0,0,0,0,0,0,0,0,0,0,0,0,0],"sum_hessian":[6.594979E1,3.498891E1,3.0960884E1,1.9877121E1,1.511179E1,1.0438973E1,2.052191E1,1.0600154E1,4.5116353E0,7.105631E0,3.3333426E0,2.2100542E0,8.3901005E0,1.1202168E0,5.985414E0,1.2818638E0,2.0514789E0],"tree_param":{"num_deleted":"0","num_feature":"11","num_nodes":"17","size_leaf_vector":"1"}},{"base_weights":[-2.7470624E-2,-9.0808016E-1,4.9859664E-1,-9.4593406E-1,-1.5656697E-2,1.04034185E-1,1.5685542E-1,-9.8215264E-1,-3.222338E-2,-1.3307304E-2,8.063484E-1,-2.347093E-2,-1.0093399E-1,-2.723805E-2,2.478177E-2,9.4774835E-2,1.1178064E-2],"categories":[],"categories_nodes":[],"categories_segments":[],"categories_sizes":[],"default_left":[0,0,0,0,0,0,0,0,0,0,0,0,0,0,0,0,0],"id":19,"left_children":[1,3,5,7,-1,-1,9,11,-1,13,15,-1,-1,-1,-1,-1,-1],"loss_changes":[2.8775732E1,5.1242447E-1,7.042241E0,1.783886E-1,0E0,0E0,2.7784245E0,1.7391586E-1,0E0,1.4764875E0,4.062488E-1,0E0,0E0,0E0,0E0,0E0,0E0],"parents":[2147483647,0,0,1,1,2,2,3,3,6,6,7,7,9,9,10,10],"right_children":[2,4,6,8,-1,-1,10,12,-1,14,16,-1,-1,-1,-1,-1,-1],"split_conditions":[2.312E-1,1.92E0,-2.56E-2,2.647E-1,-1.5656697E-2,1.04034185E-1,3.835E-1,1.51E-2,-3.222338E-2,2.768E-1,1.7E0,-2.347093E-2,-1.0093399E-1,-2.723805E-2,2.478177E-2,9.4774835E-2,1.1178064E-2],"split_indices":[1,6,0,10,0,0,1,10,0,0,6,0,0,0,0,0,0],"split_type":[0,0,0,0,0,0,0,0,0,0,0,0,0,0,0,0,0],"sum_hessian":[6.0138405E1,2.2218916E1,3.7919487E1,2.0907112E1,1.3118031E0,1.3876899E1,2.4042591E1,1.9216482E1,1.69063E0,1.9827446E1,4.215144E0,1.0125356E0,1.8203947E1,9.931189E0,9.896258E0,3.1993134E0,1.0158308E0],"tree_param":{"num_deleted":"0","num_feature":"11","num_nodes":"17","size_leaf_vector":"1"}},{"base_weights":[8.67467E-3,7.2306293E-1,-7.879716E-1,-2.6233447E-1,8.5689247E-1,-8.759716E-1,4.6950944E-2,-7.638228E-2,7.431855E-2,1.0054451E-1,1.5459746E-1,-9.878337E-1,-4.505863E-1,-3.4881458E-2,7.500692E-2,-1.03074126E-1,-9.387312E-3,-7.151708E-2,4.1927632E-2],"categories":[],"categories_nodes":[],"categories_segments":[],"categories_sizes":[],"default_left":[0,0,0,0,0,0,0,0,0,0,0,0,0,0,0,0,0,0,0],"id":20,"left_children":[1,3,5,7,9,11,-1,-1,-1,-1,13,15,17,-1,-1,-1,-1,-1,-1],"loss_changes":[3.5326565E1,4.5397053E0,3.6593285E0,2.9265769E0,2.8744125E0,8.7685204E-1,0E0,0E0,0E0,0E0,2.135838E0,7.1481705E-1,2.054333E0,0E0,0E0,0E0,0E0,0E0,0E0],"parents":[2147483647,0,0,1,1,2,2,3,3,4,4,5,5,10,10,11,11,12,12],"right_children":[2,4,6,8,10,12,-1,-1,-1,-1,14,16,18,-1,-1,-1,-1,-1,-1],"split_conditions":[3.22E0,2.193E-1,3.984E-1,6.369E-1,3.01E0,2.797E-1,4.6950944E-2,-7.638228E-2,7.431855E-2,1.0054451E-1,5.687E-1,2.835E-1,8.519E-1,-3.4881458E-2,7.500692E-2,-1.03074126E-1,-9.387312E-3,-7.151708E-2,4.1927632E-2],"split_indices":[5,1,1,2,5,4,0,0,0,0,3,10,3,0,0,0,0,0,0],"split_type":[0,0,0,0,0,0,0,0,0,0,0,0,0,0,0,0,0,0,0],"sum_hessian":[6.0071716E1,3.1719654E1,2.835206E1,3.6780055E0,2.8041649E1,2.678127E1,1.5707926E0,2.6144547E0,1.0635507E0,2.2789461E1,5.252187E0,2.0158144E1,6.623125E0,3.0705574E0,2.1816294E0,1.9088926E1,1.0692176E0,5.2147875E0,1.4083378E0],"tree_param":{"num_deleted":"0","num_feature":"11","num_nodes":"19","size_leaf_vector":"1"}},{"base_weights":[1.7211257E-2,8.9096063E-1,-5.5368084E-1,-1.7539777E-2,9.840347E-2,-8.231899E-2,-1.0305573E-1,-4.9856E-1,7.313203E-1,-7.799103E-2,8.37278E-2,1.1603951E-1,2.593635E-2],"categories":[],"categories_nodes":[],"categories_segments":[],"categories_sizes":[],"default_left":[0,0,0,0,0,0,0,0,0,0,0,0,0],"id":21,"left_children":[1,3,5,-1,-1,7,-1,9,11,-1,-1,-1,-1],"loss_changes":[2.9705385E1,2.5075645E0,8.015548E0,0E0,0E0,6.8704453E0,0E0,5.6528406E0,1.0976944E0,0E0,0E0,0E0,0E0],"parents":[2147483647,0,0,1,1,2,2,5,5,7,7,8,8],"right_children":[2,4,6,-1,-1,8,-1,10,12,-1,-1,-1,-1],"split_conditions":[2.94E0,1.943E-1,3.6E0,-1.7539777E-2,9.840347E-2,6.53E-1,-1.0305573E-1,3.835E-1,1.204E-1,-7.799103E-2,8.37278E-2,1.1603951E-1,2.593635E-2],"split_indices":[5,1,5,0,0,3,0,1,10,0,0,0,0],"split_type":[0,0,0,0,0,0,0,0,0,0,0,0,0],"sum_hessian":[5.756276E1,2.2526043E1,3.5036716E1,1.7372864E0,2.0788757E1,1.8209959E1,1.6826757E1,1.2303163E1,5.906796E0,1.0506482E1,1.7966803E0,2.3299015E0,3.5768948E0],"tree_param":{"num_deleted":"0","num_feature":"11","num_nodes":"13","size_leaf_vector":"1"}},{"base_weights":[2.5073722E-2,-8.231026E-1,4.9036023E-1,-9.3851143E-1,-3.797576E-1,9.93455E-2,1.6538116E-1,-9.901073E-2,-2.4537029E-2,-7.042036E-2,1.9946462E-2,-1.441999E-1,7.0509815E-1,-3.708171E-2,6.278906E-2,8.3513886E-2,1.2455842E-2],"categories":[],"categories_nodes":[],"categories_segments":[],"categories_sizes":[],"default_left":[0,0,0,0,0,0,0,0,0,0,0,0,0,0,0,0,0],"id":22,"left_children":[1,3,5,7,9,-1,11,-1,-1,-1,-1,13,15,-1,-1,-1,-1],"loss_changes":[2.1163727E1,6.1616516E-1,5.4920387E0,2.7213383E-1,1.193928E0,0E0,3.8141062E0,0E0,0E0,0E0,0E0,2.8485947E0,5.202193E-1,0E0,0E0,0E0,0E0],"parents":[2147483647,0,0,1,1,2,2,3,3,4,4,6,6,11,11,12,12],"right_children":[2,4,6,8,10,-1,12,-1,-1,-1,-1,14,16,-1,-1,-1,-1],"split_conditions":[2.312E-1,1.901E-1,3E-3,5.193E-1,2.867E-1,9.93455E-2,2.01E-1,-9.901073E-2,-2.4537029E-2,-7.042036E-2,1.9946462E-2,3.984E-1,8.19E-1,-3.708171E-2,6.278906E-2,8.3513886E-2,1.2455842E-2],"split_indices":[1,1,0,7,7,0,7,0,0,0,0,1,2,0,0,0,0],"split_type":[0,0,0,0,0,0,0,0,0,0,0,0,0,0,0,0,0],"sum_hessian":[5.160452E1,1.8008177E1,3.359634E1,1.3402447E1,4.60573E0,1.237768E1,2.1218662E1,1.2075165E1,1.3272822E0,2.81382E0,1.7919099E0,1.3949861E1,7.268801E0,1.1186284E1,2.7635763E0,5.5802674E0,1.6885335E0],"tree_param":{"num_deleted":"0","num_feature":"11","num_nodes":"17","size_leaf_vector":"1"}},{"base_weights":[7.089466E-4,6.6501105E-1,-7.7189666E-1,1.608762E-1,9.315775E-1,-2.6182246E-1,-1.01361014E-1,8.6409226E-2,-1.2812346E-1,9.730891E-2,2.3652771E-2,4.0136266E-1,-5.9795636E-1,-7.0124954E-2,7.1839586E-2,-3.2226004E-2,9.574492E-2,-8.576145E-2,2.2075793E-2],"categories":[],"categories_nodes":[],"categories_segments":[],"categories_sizes":[],"default_left":[0,0,0,0,0,0,0,0,0,0,0,0,0,0,0,0,0,0,0],"id":23,"left_children":[1,3,5,7,9,11,-1,-1,13,-1,-1,15,17,-1,-1,-1,-1,-1,-1],"loss_changes":[2.7035553E1,3.6562653E0,2.7371635E0,2.3472066E0,2.983513E-1,2.2860072E0,0E0,0E0,4.7102947E0,0E0,0E0,1.7916182E0,1.5695751E0,0E0,0E0,0E0,0E0,0E0,0E0],"parents":[2147483647,0,0,1,1,2,2,3,3,4,4,5,5,8,8,11,11,12,12],"right_children":[2,4,6,8,10,12,-1,-1,14,-1,-1,16,18,-1,-1,-1,-1,-1,-1],"split_conditions":[3.22E0,2.88E-1,3.6E0,2.63E0,1.91E0,2.0437E-1,-1.01361014E-1,8.6409226E-2,5.178E-1,9.730891E-2,2.3652771E-2,6.351E-1,3.442E-1,-7.0124954E-2,7.1839586E-2,-3.2226004E-2,9.574492E-2,-8.576145E-2,2.2075793E-2],"split_indices":[5,4,5,5,6,8,0,0,3,0,0,3,4,0,0,0,0,0,0],"split_type":[0,0,0,0,0,0,0,0,0,0,0,0,0,0,0,0,0,0,0],"sum_hessian":[5.0675728E1,2.7322525E1,2.3353203E1,1.0004798E1,1.7317728E1,8.178265E0,1.5174939E1,2.3344626E0,7.670335E0,1.596424E1,1.3534873E0,2.6855922E0,5.4926724E0,4.6760664E0,2.9942684E0,1.3497193E0,1.335873E0,4.134035E0,1.3586377E0],"tree_param":{"num_deleted":"0","num_feature":"11","num_nodes":"19","size_leaf_vector":"1"}},{"base_weights":[3.2964326E-2,7.86631E-1,-5.879188E-1,2.8886917E-1,9.885078E-2,-7.827842E-1,4.3984082E-1,-1.5594374E-1,7.738496E-2,-4.166595E-1,-9.920295E-2,-5.1687717E-2,8.401393E-2,7.7668026E-2,-8.658759E-2,-7.510122E-2,6.5971725E-2],"categories":[],"categories_nodes":[],"categories_segments":[],"categories_sizes":[],"default_left":[0,0,0,0,0,0,0,0,0,0,0,0,0,0,0,0,0],"id":24,"left_children":[1,3,5,7,-1,9,11,13,-1,15,-1,-1,-1,-1,-1,-1,-1],"loss_changes":[2.3034632E1,1.9469137E0,5.7559013E0,1.8083699E0,0E0,1.3543568E0,2.3287818E0,3.9253612E0,0E0,4.135914E0,0E0,0E0,0E0,0E0,0E0,0E0,0E0],"parents":[2147483647,0,0,1,1,2,2,3,3,5,5,6,6,7,7,9,9],"right_children":[2,4,6,8,-1,10,12,14,-1,16,-1,-1,-1,-1,-1,-1,-1],"split_conditions":[3.06E0,2.731E-1,3.334E-1,4.938E-1,9.885078E-2,3.6E0,9.63E-2,2.54E0,7.738496E-2,7.338E-1,-9.920295E-2,-5.1687717E-2,8.401393E-2,7.7668026E-2,-8.658759E-2,-7.510122E-2,6.5971725E-2],"split_indices":[5,1,1,2,0,5,10,5,0,2,0,0,0,0,0,0,0],"split_type":[0,0,0,0,0,0,0,0,0,0,0,0,0,0,0,0,0],"sum_hessian":[4.72374E1,2.1216516E1,2.6020885E1,6.823334E0,1.4393181E1,2.2073973E1,3.9469135E0,3.9129345E0,2.9104E0,9.115492E0,1.2958481E1,1.0783693E0,2.868544E0,1.6505797E0,2.2623546E0,7.185693E0,1.929799E0],"tree_param":{"num_deleted":"0","num_feature":"11","num_nodes":"17","size_leaf_vector":"1"}},{"base_weights":[3.4063733E-3,6.512045E-1,-7.4276483E-1,1.8718764E-1,9.504786E-1,-3.1976295E-1,-9.871677E-2,-2.7364218E-1,9.1503805E-1,-1.0451667E-2,1.0344628E-1,-8.676654E-2,2.1422572E-1,6.989684E-2,-6.362785E-2,2.474515E-2,1.0341295E-1,-4.639099E-2,7.497503E-2],"categories":[],"categories_nodes":[],"categories_segments":[],"categories_sizes":[],"default_left":[0,0,0,0,0,0,0,0,0,0,0,0,0,0,0,0,0,0,0],"id":25,"left_children":[1,3,5,7,9,11,-1,13,15,-1,-1,-1,17,-1,-1,-1,-1,-1,-1],"loss_changes":[2.2679167E1,3.3093767E0,1.9387169E0,3.9705994E0,1.4390144E0,2.9549348E0,0E0,3.1116123E0,1.0426521E-1,0E0,0E0,0E0,2.3797197E0,0E0,0E0,0E0,0E0,0E0,0E0],"parents":[2147483647,0,0,1,1,2,2,3,3,4,4,5,5,7,7,8,8,12,12],"right_children":[2,4,6,8,10,12,-1,14,16,-1,-1,-1,18,-1,-1,-1,-1,-1,-1],"split_conditions":[3.22E0,2.956E-1,3.6E0,2.354E-1,9.6E-3,1.906E-1,-9.871677E-2,2.63E0,2.655E-1,-1.0451667E-2,1.0344628E-1,-8.676654E-2,2.559E-1,6.989684E-2,-6.362785E-2,2.474515E-2,1.0341295E-1,-4.639099E-2,7.497503E-2],"split_indices":[5,1,5,7,7,7,0,5,7,0,0,0,1,0,0,0,0,0,0],"split_type":[0,0,0,0,0,0,0,0,0,0,0,0,0,0,0,0,0,0,0],"sum_hessian":[4.4918346E1,2.4112255E1,2.0806093E1,1.0091348E1,1.4020906E1,8.464481E0,1.2341612E1,6.5612264E0,3.5301216E0,1.0158235E0,1.3005083E1,3.8693917E0,4.59509E0,1.530059E0,5.031167E0,1.0003462E0,2.5297754E0,2.086579E0,2.5085108E0],"tree_param":{"num_deleted":"0","num_feature":"11","num_nodes":"19","size_leaf_vector":"1"}},{"base_weights":[3.0828303E-2,-3.4108165E-1,8.3190507E-1,-7.600241E-1,-8.201562E-2,2.8504348E-1,9.599689E-2,-8.1281996E-1,-1.3908118E-2,-3.1783247E-1,6.580508E-1,7.205386E-2,-4.8712198E-2,-8.736205E-2,-1.3476682E-2,6.2178034E-2,-4.427506E-2,9.367399E-2,4.462207E-3],"categories":[],"categories_nodes":[],"categories_segments":[],"categories_sizes":[],"default_left":[0,0,0,0,0,0,0,0,0,0,0,0,0,0,0,0,0,0,0],"id":26,"left_children":[1,3,5,7,9,11,-1,13,-1,15,17,-1,-1,-1,-1,-1,-1,-1,-1],"loss_changes":[1.3028877E1,3.1855085E0,6.9663906E-1,2.5783634E-1,3.631751E0,1.7132865E0,0E0,3.0360556E-1,0E0,2.1000943E0,8.2404065E-1,0E0,0E0,0E0,0E0,0E0,0E0,0E0,0E0],"parents":[2147483647,0,0,1,1,2,2,3,3,4,4,5,5,7,7,9,9,10,10],"right_children":[2,4,6,8,10,12,-1,14,-1,16,18,-1,-1,-1,-1,-1,-1,-1,-1],"split_conditions":[3.334E-1,1.951E-1,5.42E-2,2.339E-1,3.03E-1,1.255E-1,9.599689E-2,5.193E-1,-1.3908118E-2,-3.61E-2,7.906E-1,7.205386E-2,-4.8712198E-2,-8.736205E-2,-1.3476682E-2,6.2178034E-2,-4.427506E-2,9.367399E-2,4.462207E-3],"split_indices":[1,1,7,4,7,0,0,7,0,0,3,0,0,0,0,0,0,0,0],"split_type":[0,0,0,0,0,0,0,0,0,0,0,0,0,0,0,0,0,0,0],"sum_hessian":[4.1779175E1,2.8924726E1,1.2854446E1,1.0313228E1,1.8611498E1,3.0511472E0,9.803299E0,9.220263E0,1.0929646E0,1.4546801E1,4.064698E0,1.9936211E0,1.0575262E0,8.196834E0,1.0234295E0,1.2402618E0,1.3306539E1,2.4325168E0,1.6321814E0],"tree_param":{"num_deleted":"0","num_feature":"11","num_nodes":"19","size_leaf_vector":"1"}},{"base_weights":[1.07672755E-2,7.280009E-1,-4.9087572E-1,1.8344897E-1,1.0003678E-1,-7.996399E-1,3.9462313E-2,7.465363E-2,-1.5458989E-1,-1.3460863E-1,-9.084162E-1,-4.0221202E-1,5.703779E-1,-6.763618E-2,7.6046996E-2,4.364073E-2,-5.6734364E-2,-9.710251E-2,-9.538628E-3,-8.222533E-2,2.9259915E-2,9.375241E-2,-2.749829E-2],"categories":[],"categories_nodes":[],"categories_segments":[],"categories_sizes":[],"default_left":[0,0,0,0,0,0,0,0,0,0,0,0,0,0,0,0,0,0,0,0,0,0,0],"id":27,"left_children":[1,3,5,7,-1,9,11,-1,13,15,17,19,21,-1,-1,-1,-1,-1,-1,-1,-1,-1,-1],"loss_changes":[1.543095E1,2.4335642E0,4.1662016E0,1.4682988E0,0E0,1.0355673E0,2.6315813E0,0E0,3.030411E0,1.0936391E0,5.987282E-1,2.0437849E0,1.8300302E0,0E0,0E0,0E0,0E0,0E0,0E0,0E0,0E0,0E0,0E0],"parents":[2147483647,0,0,1,1,2,2,3,3,5,5,6,6,8,8,9,9,10,10,11,11,12,12],"right_children":[2,4,6,8,-1,10,12,-1,14,16,18,20,22,-1,-1,-1,-1,-1,-1,-1,-1,-1,-1],"split_conditions":[3.01E0,2.798E-1,2.797E-1,2.63E0,1.0003678E-1,3.22E0,3.167E-1,7.465363E-2,3.046E-1,8.97E-2,2.765E-1,3.837E-1,3.6E0,-6.763618E-2,7.6046996E-2,4.364073E-2,-5.6734364E-2,-9.710251E-2,-9.538628E-3,-8.222533E-2,2.9259915E-2,9.375241E-2,-2.749829E-2],"split_indices":[5,1,4,5,0,5,0,0,0,10,10,4,5,0,0,0,0,0,0,0,0,0,0],"split_type":[0,0,0,0,0,0,0,0,0,0,0,0,0,0,0,0,0,0,0,0,0,0,0],"sum_hessian":[4.0894924E1,1.6645077E1,2.4249847E1,6.107563E0,1.0537514E1,1.5005698E1,9.244149E0,1.837807E0,4.269756E0,2.4239225E0,1.2581776E1,5.178509E0,4.0656395E0,2.8853624E0,1.3843935E0,1.041338E0,1.3825845E0,1.1501735E1,1.0800412E0,3.1130972E0,2.065412E0,2.7585564E0,1.3070829E0],"tree_param":{"num_deleted":"0","num_feature":"11","num_nodes":"23","size_leaf_vector":"1"}},{"base_weights":[3.0874559E-3,6.127054E-1,-6.8427974E-1,9.517886E-2,3.124449E-1,-8.880435E-1,-2.6336277E-1,-3.966907E-1,5.674222E-1,-9.790043E-3,-9.577774E-2,-7.32815E-1,3.127153E-1,-8.616425E-2,3.6649052E-2,4.343185E-3,6.953005E-2,-8.4374584E-2,-2.5586559E-2,-3.744624E-2,8.050747E-2],"categories":[],"categories_nodes":[],"categories_segments":[],"categories_sizes":[],"default_left":[0,0,0,0,0,0,0,0,0,0,0,0,0,0,0,0,0,0,0,0,0],"id":28,"left_children":[1,3,5,-1,7,9,11,13,15,-1,-1,17,19,-1,-1,-1,-1,-1,-1,-1,-1],"loss_changes":[1.6642971E1,1.8454466E0,1.3674469E0,0E0,2.5125666E0,5.7618237E-1,2.260637E0,1.7118539E0,6.2088776E-1,0E0,0E0,1.8920898E-2,1.6797675E0,0E0,0E0,0E0,0E0,0E0,0E0,0E0,0E0],"parents":[2147483647,0,0,1,1,2,2,4,4,5,5,6,6,7,7,8,8,11,11,12,12],"right_children":[2,4,6,-1,8,10,12,14,16,-1,-1,18,20,-1,-1,-1,-1,-1,-1,-1,-1],"split_conditions":[3.22E0,2.64E0,2.797E-1,9.517886E-2,7.35E-2,6.2E-1,1.88E-1,3.33E-1,1.753E-1,-9.790043E-3,-9.577774E-2,3.676E-1,7.9E-1,-8.616425E-2,3.6649052E-2,4.343185E-3,6.953005E-2,-8.4374584E-2,-2.5586559E-2,-3.744624E-2,8.050747E-2],"split_indices":[5,5,4,0,7,6,7,4,8,0,0,4,6,0,0,0,0,0,0,0,0],"split_type":[0,0,0,0,0,0,0,0,0,0,0,0,0,0,0,0,0,0,0,0,0],"sum_hessian":[3.7717163E1,2.0046646E1,1.7670517E1,8.395624E0,1.1651023E1,1.1158812E1,6.511707E0,2.9343379E0,8.716685E0,1.0999044E0,1.0058907E1,3.437982E0,3.0737245E0,1.7432722E0,1.1910655E0,1.972767E0,6.743918E0,2.165317E0,1.272665E0,1.3829783E0,1.6907463E0],"tree_param":{"num_deleted":"0","num_feature":"11","num_nodes":"21","size_leaf_vector":"1"}},{"base_weights":[3.7267305E-2,7.1553755E-1,-4.785576E-1,-1.24443464E-1,8.850515E-1,-7.283636E-1,1.0072836E-1,-7.029652E-2,6.765506E-2,9.616432E-1,1.2558642E-2,-8.8007766E-1,1.9336045E-2,-6.6434674E-2,5.87385E-1,1.00219525E-1,2.6400117E-2,-2.6405035E-2,-9.222813E-2,1.009238E-2,8.908428E-2],"categories":[],"categories_nodes":[],"categories_segments":[],"categories_sizes":[],"default_left":[0,0,0,0,0,0,0,0,0,0,0,0,0,0,0,0,0,0,0,0,0],"id":29,"left_children":[1,3,5,7,9,11,13,-1,-1,15,-1,17,-1,-1,19,-1,-1,-1,-1,-1,-1],"loss_changes":[1.3094417E1,2.4090776E0,3.1560173E0,2.1381874E0,6.6786385E-1,2.2685142E0,3.1070871E0,0E0,0E0,7.958794E-2,0E0,9.6138E-2,0E0,0E0,6.468258E-1,0E0,0E0,0E0,0E0,0E0,0E0],"parents":[2147483647,0,0,1,1,2,2,3,3,4,4,5,5,6,6,9,9,11,11,14,14],"right_children":[2,4,6,8,10,12,14,-1,-1,16,-1,18,-1,-1,20,-1,-1,-1,-1,-1,-1],"split_conditions":[3.01E0,2.295E-1,2.941E-1,2.354E-1,2.94E0,4.489E-1,1.131E-1,-7.029652E-2,6.765506E-2,4.6545E-1,1.2558642E-2,3.15E0,1.9336045E-2,-6.6434674E-2,2.175E-1,1.00219525E-1,2.6400117E-2,-2.6405035E-2,-9.222813E-2,1.009238E-2,8.908428E-2],"split_indices":[5,1,1,7,5,7,7,0,0,8,0,5,0,0,7,0,0,0,0,0,0],"split_type":[0,0,0,0,0,0,0,0,0,0,0,0,0,0,0,0,0,0,0,0,0],"sum_hessian":[3.5447933E1,1.5145539E1,2.0302397E1,2.5878785E0,1.255766E1,1.4005462E1,6.2969346E0,1.5736712E0,1.0142074E0,1.1165421E1,1.3922395E0,1.20648E1,1.9406612E0,2.3062088E0,3.9907258E0,1.0139494E1,1.0259274E0,1.2388235E0,1.0825976E1,2.0450177E0,1.9457079E0],"tree_param":{"num_deleted":"0","num_feature":"11","num_nodes":"21","size_leaf_vector":"1"}},{"base_weights":[-1.8505149E-2,5.3082234E-1,-6.416666E-1,8.630051E-2,9.173385E-1,-9.471535E-2,-8.584444E-2,-6.7527866E-1,4.8381165E-1,2.5071377E-2,9.656441E-2,-5.268268E-1,9.0063624E-2,-1.0930145E-2,-8.408683E-2,3.057489E-3,8.1907704E-2,-7.390983E-2,2.041566E-2],"categories":[],"categories_nodes":[],"categories_segments":[],"categories_sizes":[],"default_left":[0,0,0,0,0,0,0,0,0,0,0,0,0,0,0,0,0,0,0],"id":30,"left_children":[1,3,5,7,9,-1,11,13,15,-1,-1,17,-1,-1,-1,-1,-1,-1,-1],"loss_changes":[1.2307574E1,3.2071695E0,2.7765775E0,3.3540432E0,8.401489E-2,0E0,3.5497851E0,2.6862192E-1,1.0618923E0,0E0,0E0,1.006848E0,0E0,0E0,0E0,0E0,0E0,0E0,0E0],"parents":[2147483647,0,0,1,1,2,2,3,3,4,4,6,6,7,7,8,8,11,11],"right_children":[2,4,6,8,10,-1,12,14,16,-1,-1,18,-1,-1,-1,-1,-1,-1,-1],"split_conditions":[3.22E0,3.086E-1,2.797E-1,8.18E-2,2.86E-2,-9.471535E-2,3.155E-1,5.89E-2,2.9981E-1,2.5071377E-2,9.656441E-2,3.984E-1,9.0063624E-2,-1.0930145E-2,-8.408683E-2,3.057489E-3,8.1907704E-2,-7.390983E-2,2.041566E-2],"split_indices":[5,1,4,7,10,0,7,0,8,0,0,1,0,0,0,0,0,0,0],"split_type":[0,0,0,0,0,0,0,0,0,0,0,0,0,0,0,0,0,0,0],"sum_hessian":[3.3958447E1,1.8127193E1,1.5831252E1,8.999913E0,9.127279E0,9.76192E0,6.069333E0,2.8468862E0,6.153027E0,1.0349514E0,8.092328E0,4.5163574E0,1.5529753E0,1.0201474E0,1.8267388E0,3.0801911E0,3.072836E0,3.491387E0,1.0249707E0],"tree_param":{"num_deleted":"0","num_feature":"11","num_nodes":"19","size_leaf_vector":"1"}},{"base_weights":[2.425115E-2,6.6802245E-1,-4.4972858E-1,9.375049E-2,2.9925635E-1,-1.0027506E-1,-8.593963E-2,-4.2732444E-2,5.976907E-1,-4.281217E-1,4.660584E-1,7.483841E-2,8.802426E-3,3.9571848E-2,-6.7736775E-2,6.345402E-2,-7.5397654E-3],"categories":[],"categories_nodes":[],"categories_segments":[],"categories_sizes":[],"default_left":[0,0,0,0,0,0,0,0,0,0,0,0,0,0,0,0,0],"id":31,"left_children":[1,3,5,-1,7,9,-1,-1,11,13,15,-1,-1,-1,-1,-1,-1],"loss_changes":[1.07911825E1,1.20824E0,2.834187E0,0E0,1.9455099E0,2.4537184E0,0E0,0E0,3.9048314E-1,1.9540125E0,4.9759793E-1,0E0,0E0,0E0,0E0,0E0,0E0],"parents":[2147483647,0,0,1,1,2,2,4,4,5,5,8,8,9,9,10,10],"right_children":[2,4,6,-1,8,10,-1,-1,12,14,16,-1,-1,-1,-1,-1,-1],"split_conditions":[3.01E0,2.64E0,3.58E0,9.375049E-2,7.35E-2,6.53E-1,-8.593963E-2,-4.2732444E-2,9E0,5.13E-2,7.906E-1,7.483841E-2,8.802426E-3,3.9571848E-2,-6.7736775E-2,6.345402E-2,-7.5397654E-3],"split_indices":[5,5,5,0,7,3,0,0,9,0,3,0,0,0,0,0,0],"split_type":[0,0,0,0,0,0,0,0,0,0,0,0,0,0,0,0,0],"sum_hessian":[3.338075E1,1.3981428E1,1.939932E1,7.187071E0,6.794357E0,1.11408E1,8.25852E0,1.8524404E0,4.941917E0,7.21065E0,3.93015E0,3.4526803E0,1.4892362E0,1.5383233E0,5.672327E0,2.866335E0,1.0638152E0],"tree_param":{"num_deleted":"0","num_feature":"11","num_nodes":"17","size_leaf_vector":"1"}},{"base_weights":[2.3696132E-2,-4.1619924E-1,4.8691398E-1,-7.667736E-1,-9.128606E-2,8.761142E-2,2.2517276E-1,-8.316079E-1,-1.76495E-2,-4.9608618E-1,4.9194804E-1,-2.0364541E-1,5.127298E-1,-2.4602726E-2,-8.9226484E-2,1.697379E-2,-7.731574E-2,7.57303E-2,-1.738827E-2,1.9202767E-2,-5.1541902E-2,6.884765E-2,1.1578196E-3],"categories":[],"categories_nodes":[],"categories_segments":[],"categories_sizes":[],"default_left":[0,0,0,0,0,0,0,0,0,0,0,0,0,0,0,0,0,0,0,0,0,0,0],"id":32,"left_children":[1,3,5,7,9,-1,11,13,-1,15,17,19,21,-1,-1,-1,-1,-1,-1,-1,-1,-1,-1],"loss_changes":[6.6945863E0,1.8527746E0,1.4305236E0,1.5878963E-1,2.5804086E0,0E0,1.448486E0,2.6443958E-2,0E0,1.3007389E0,9.367269E-1,7.270069E-1,5.9173E-1,0E0,0E0,0E0,0E0,0E0,0E0,0E0,0E0,0E0,0E0],"parents":[2147483647,0,0,1,1,2,2,3,3,4,4,6,6,7,7,9,9,10,10,11,11,12,12],"right_children":[2,4,6,8,10,-1,12,14,-1,16,18,20,22,-1,-1,-1,-1,-1,-1,-1,-1,-1,-1],"split_conditions":[2.731E-1,1.881E-1,-2.56E-2,4.993E-1,2.516E-1,8.761142E-2,1.209E-1,1.208E-1,-1.76495E-2,3.326E-1,7.906E-1,1.48E0,1.58E0,-2.4602726E-2,-8.9226484E-2,1.697379E-2,-7.731574E-2,7.57303E-2,-1.738827E-2,1.9202767E-2,-5.1541902E-2,6.884765E-2,1.1578196E-3],"split_indices":[1,1,0,7,7,0,7,8,0,3,3,6,6,0,0,0,0,0,0,0,0,0,0],"split_type":[0,0,0,0,0,0,0,0,0,0,0,0,0,0,0,0,0,0,0,0,0,0,0],"sum_hessian":[3.085953E1,1.5880294E1,1.4979237E1,6.984373E0,8.895921E0,5.079275E0,9.899961E0,5.924775E0,1.0595978E0,5.339443E0,3.556478E0,4.091034E0,5.808927E0,1.0306786E0,4.8940964E0,1.6828374E0,3.6566057E0,2.4447758E0,1.1117023E0,1.9721946E0,2.1188395E0,4.0239844E0,1.7849424E0],"tree_param":{"num_deleted":"0","num_feature":"11","num_nodes":"23","size_leaf_vector":"1"}},{"base_weights":[-1.4382277E-2,5.9159404E-1,-4.8677048E-1,7.2542265E-2,9.47082E-2,-9.112903E-2,2.3699444E-2,-6.348976E-2,5.040421E-1,-3.6107177E-1,7.652561E-2,7.315016E-2,-3.2205072E-3,-6.060734E-2,3.781023E-2],"categories":[],"categories_nodes":[],"categories_segments":[],"categories_sizes":[],"default_left":[0,0,0,0,0,0,0,0,0,0,0,0,0,0,0],"id":33,"left_children":[1,3,5,7,-1,-1,9,-1,11,13,-1,-1,-1,-1,-1],"loss_changes":[9.296545E0,2.558313E0,3.9727817E0,2.4172144E0,0E0,0E0,2.916504E0,0E0,6.120604E-1,1.4554754E0,0E0,0E0,0E0,0E0,0E0],"parents":[2147483647,0,0,1,1,2,2,3,3,6,6,8,8,9,9],"right_children":[2,4,6,8,-1,-1,10,-1,12,14,-1,-1,-1,-1,-1],"split_conditions":[3.06E0,2.798E-1,2.597E-1,8.96E-2,9.47082E-2,-9.112903E-2,2.175E-1,-6.348976E-2,2.89E0,3.984E-1,7.652561E-2,7.315016E-2,-3.2205072E-3,-6.060734E-2,3.781023E-2],"split_indices":[5,1,1,7,0,0,7,0,5,1,0,0,0,0,0],"split_type":[0,0,0,0,0,0,0,0,0,0,0,0,0,0,0],"sum_hessian":[3.0470333E1,1.3237287E1,1.7233046E1,5.8702025E0,7.3670835E0,8.979919E0,8.253127E0,2.0454056E0,3.824797E0,5.7715397E0,2.4815872E0,2.4299672E0,1.3948299E0,4.4700084E0,1.3015316E0],"tree_param":{"num_deleted":"0","num_feature":"11","num_nodes":"15","size_leaf_vector":"1"}},{"base_weights":[5.6881145E-2,3.3903116E-1,-7.9925245E-1,9.165262E-2,6.956525E-2,-8.67376E-2,-2.6561871E-2,-3.2309982E-1,6.487244E-1,2.0259058E-2,-5.2148998E-2,2.0922678E-2,7.9158805E-2],"categories":[],"categories_nodes":[],"categories_segments":[],"categories_sizes":[],"default_left":[0,0,0,0,0,0,0,0,0,0,0,0,0],"id":34,"left_children":[1,3,5,-1,7,-1,-1,9,11,-1,-1,-1,-1],"loss_changes":[7.2688046E0,3.4361737E0,4.147911E-2,0E0,3.9431841E0,0E0,0E0,1.1956563E0,2.7175713E-1,0E0,0E0,0E0,0E0],"parents":[2147483647,0,0,1,1,2,2,4,4,7,7,8,8],"right_children":[2,4,6,-1,8,-1,-1,10,12,-1,-1,-1,-1],"split_conditions":[3.6E0,2.68E0,2.413E-1,9.165262E-2,1.906E-1,-8.67376E-2,-2.6561871E-2,1.07E0,2.669E-1,2.0259058E-2,-5.2148998E-2,2.0922678E-2,7.9158805E-2],"split_indices":[5,5,10,0,7,0,0,6,7,0,0,0,0],"split_type":[0,0,0,0,0,0,0,0,0,0,0,0,0],"sum_hessian":[2.796956E1,2.1490938E1,6.4786224E0,6.073498E0,1.541744E1,5.1905794E0,1.288043E0,9.451514E0,5.965926E0,2.5838108E0,6.867704E0,2.06814E0,3.8977861E0],"tree_param":{"num_deleted":"0","num_feature":"11","num_nodes":"13","size_leaf_vector":"1"}},{"base_weights":[-2.942472E-3,3.1978348E-1,-8.856111E-2,-1.007104E-2,7.109775E-1,-4.5722103E-1,6.2289727E-1,-1.4381617E-2,8.343597E-1,4.1799948E-2,-7.635269E-2,8.595589E-2,2.0409852E-2,9.62918E-2,9.192263E-3],"categories":[],"categories_nodes":[],"categories_segments":[],"categories_sizes":[],"default_left":[0,0,0,0,0,0,0,0,0,0,0,0,0,0,0],"id":35,"left_children":[1,3,-1,5,7,9,11,-1,13,-1,-1,-1,-1,-1,-1],"loss_changes":[8.87628E0,2.9523277E0,0E0,4.06864E0,1.222671E0,2.5740547E0,4.1506624E-1,0E0,7.9756165E-1,0E0,0E0,0E0,0E0,0E0,0E0],"parents":[2147483647,0,0,1,1,3,3,4,4,5,5,6,6,8,8],"right_children":[2,4,-1,6,8,10,12,-1,14,-1,-1,-1,-1,-1,-1],"split_conditions":[3.52E0,2.994E-1,-8.856111E-2,2.321E-1,2.29E-2,2.72E0,1.066E-1,-1.4381617E-2,3.28E0,4.1799948E-2,-7.635269E-2,8.595589E-2,2.0409852E-2,9.62918E-2,9.192263E-3],"split_indices":[5,1,0,7,7,5,10,0,5,0,0,0,0,0,0],"split_type":[0,0,0,0,0,0,0,0,0,0,0,0,0,0,0],"sum_hessian":[2.9165958E1,2.182419E1,7.341767E0,1.2368954E1,9.455237E0,7.4111357E0,4.9578185E0,1.1717466E0,8.28349E0,1.8267732E0,5.5843625E0,2.4952965E0,2.462522E0,6.807717E0,1.4757736E0],"tree_param":{"num_deleted":"0","num_feature":"11","num_nodes":"15","size_leaf_vector":"1"}},{"base_weights":[-9.892538E-3,4.1015044E-1,-4.8720092E-1,4.8095512E-4,8.095292E-1,-8.558852E-2,-1.5914759E-1,3.963755E-1,-6.194293E-1,6.023258E-4,9.292953E-2,-4.7512496E-1,8.731487E-2,-1.9834504E-2,6.3717745E-2,-1.9030029E-2,-7.2949864E-2,-6.504618E-2,2.7490154E-2],"categories":[],"categories_nodes":[],"categories_segments":[],"categories_sizes":[],"default_left":[0,0,0,0,0,0,0,0,0,0,0,0,0,0,0,0,0,0,0],"id":36,"left_children":[1,3,5,7,9,-1,11,13,15,-1,-1,17,-1,-1,-1,-1,-1,-1,-1],"loss_changes":[5.702748E0,2.4771092E0,1.4729974E0,2.3255749E0,7.3221016E-1,0E0,3.1120045E0,9.544331E-1,3.5629988E-2,0E0,0E0,1.0965477E0,0E0,0E0,0E0,0E0,0E0,0E0,0E0],"parents":[2147483647,0,0,1,1,2,2,3,3,4,4,6,6,7,7,8,8,11,11],"right_children":[2,4,6,8,10,-1,12,14,16,-1,-1,18,-1,-1,-1,-1,-1,-1,-1],"split_conditions":[3.22E0,2.956E-1,2.331E-1,1.56E0,2.62E-2,-8.558852E-2,3.446E-1,2.173E-1,2.437E-1,6.023258E-4,9.292953E-2,3.984E-1,8.731487E-2,-1.9834504E-2,6.3717745E-2,-1.9030029E-2,-7.2949864E-2,-6.504618E-2,2.7490154E-2],"split_indices":[5,1,1,6,7,0,7,1,1,0,0,1,0,0,0,0,0,0,0],"split_type":[0,0,0,0,0,0,0,0,0,0,0,0,0,0,0,0,0,0,0],"sum_hessian":[2.6447361E1,1.4142403E1,1.2304957E1,7.4754934E0,6.6669097E0,5.036114E0,7.268843E0,4.7820897E0,2.6934035E0,1.001069E0,5.6658406E0,5.978587E0,1.2902563E0,1.4290379E0,3.353052E0,1.1068851E0,1.5865185E0,4.9533663E0,1.0252206E0],"tree_param":{"num_deleted":"0","num_feature":"11","num_nodes":"19","size_leaf_vector":"1"}},{"base_weights":[8.1812926E-2,3.4437135E-1,-7.6108867E-1,8.729338E-2,1.2458022E-1,-8.31751E-2,-2.0862868E-2,-1.7910947E-1,6.605433E-1,-6.818294E-2,3.378668E-2,-1.922524E-2,8.883021E-2],"categories":[],"categories_nodes":[],"categories_segments":[],"categories_sizes":[],"default_left":[0,0,0,0,0,0,0,0,0,0,0,0,0],"id":37,"left_children":[1,3,5,-1,7,-1,-1,9,11,-1,-1,-1,-1],"loss_changes":[5.980875E0,2.2602065E0,7.822609E-2,0E0,2.652428E0,0E0,0E0,3.0176404E0,1.3059461E0,0E0,0E0,0E0,0E0],"parents":[2147483647,0,0,1,1,2,2,4,4,7,7,8,8],"right_children":[2,4,6,-1,8,-1,-1,10,12,-1,-1,-1,-1],"split_conditions":[3.6E0,2.64E0,2.826E-1,8.729338E-2,2.354E-1,-8.31751E-2,-2.0862868E-2,2.867E-1,1.881E-1,-6.818294E-2,3.378668E-2,-1.922524E-2,8.883021E-2],"split_indices":[5,5,1,0,7,0,0,1,1,0,0,0,0],"split_type":[0,0,0,0,0,0,0,0,0,0,0,0,0],"sum_hessian":[2.484047E1,1.9391565E1,5.4489026E0,4.822522E0,1.4569043E1,4.3827825E0,1.0661203E0,9.724643E0,4.844401E0,4.768633E0,4.95601E0,1.05396E0,3.7904408E0],"tree_param":{"num_deleted":"0","num_feature":"11","num_nodes":"13","size_leaf_vector":"1"}},{"base_weights":[6.608691E-2,-4.5504668E-1,4.585049E-1,-2.54444E-1,-7.782932E-2,1.2128066E-1,7.5932276E-1,-4.528732E-1,1.6665396E-1,2.9879734E-1,-2.0451617E-1,1.4648298E-2,8.618964E-1,-6.622873E-2,-1.1873937E-2,-1.4152055E-2,3.5205122E-2,5.037595E-2,-8.191302E-3,-3.9558847E-2,8.704568E-3,9.4503835E-2,2.5258828E-2],"categories":[],"categories_nodes":[],"categories_segments":[],"categories_sizes":[],"default_left":[0,0,0,0,0,0,0,0,0,0,0,0,0,0,0,0,0,0,0,0,0,0,0],"id":38,"left_children":[1,3,5,7,-1,9,11,13,15,17,19,-1,21,-1,-1,-1,-1,-1,-1,-1,-1,-1,-1],"loss_changes":[5.3352437E0,5.327747E-1,1.4091136E0,7.8071326E-1,0E0,5.3344977E-1,3.534627E-1,3.416016E-1,2.4603985E-1,4.8549277E-1,2.2797847E-1,0E0,8.209038E-2,0E0,0E0,0E0,0E0,0E0,0E0,0E0,0E0,0E0,0E0],"parents":[2147483647,0,0,1,1,2,2,3,3,5,5,6,6,7,7,8,8,9,9,10,10,12,12],"right_children":[2,4,6,8,-1,10,12,14,16,18,20,-1,22,-1,-1,-1,-1,-1,-1,-1,-1,-1,-1],"split_conditions":[2.552E-1,7.604E-1,3.314E-1,6.351E-1,-7.782932E-2,3.1054E-1,5.24E-2,2.193E-1,1.753E-1,2.909E-1,2.855E-1,1.4648298E-2,1.64E0,-6.622873E-2,-1.1873937E-2,-1.4152055E-2,3.5205122E-2,5.037595E-2,-8.191302E-3,-3.9558847E-2,8.704568E-3,9.4503835E-2,2.5258828E-2],"split_indices":[1,2,1,3,0,8,10,1,1,1,1,0,6,0,0,0,0,0,0,0,0,0,0],"split_type":[0,0,0,0,0,0,0,0,0,0,0,0,0,0,0,0,0,0,0,0,0,0,0],"sum_hessian":[2.4068693E1,1.0270203E1,1.3798491E1,7.4401135E0,2.8300886E0,7.167131E0,6.63136E0,5.00582E0,2.4342937E0,4.692956E0,2.4741752E0,1.298912E0,5.332448E0,2.4734898E0,2.5323303E0,1.0032748E0,1.431019E0,2.8405085E0,1.8524473E0,1.2791231E0,1.1950521E0,4.207341E0,1.1251068E0],"tree_param":{"num_deleted":"0","num_feature":"11","num_nodes":"23","size_leaf_vector":"1"}},{"base_weights":[3.166562E-2,5.9775233E-1,-3.6024064E-1,1.4884289E-1,7.394609E-1,-8.0673926E-2,-7.5264674E-1,4.196977E-2,-2.7205957E-2,8.189868E-2,1.1663965E-2,-4.2691597E-1,4.5585552E-1,-8.371275E-2,-2.0495554E-2,1.08969165E-2,-5.8775455E-2,7.127319E-2,-1.753625E-2],"categories":[],"categories_nodes":[],"categories_segments":[],"categories_sizes":[],"default_left":[0,0,0,0,0,0,0,0,0,0,0,0,0,0,0,0,0,0,0],"id":39,"left_children":[1,3,5,7,9,11,13,-1,-1,-1,-1,15,17,-1,-1,-1,-1,-1,-1],"loss_changes":[5.452903E0,5.282409E-1,1.5381372E0,5.313774E-1,2.6973534E-1,1.9837333E0,1.0342407E-1,0E0,0E0,0E0,0E0,6.130699E-1,8.158947E-1,0E0,0E0,0E0,0E0,0E0,0E0],"parents":[2147483647,0,0,1,1,2,2,3,3,4,4,5,5,6,6,11,11,12,12],"right_children":[2,4,6,8,10,12,14,-1,-1,-1,-1,16,18,-1,-1,-1,-1,-1,-1],"split_conditions":[3.06E0,7.71E-2,3.58E0,1.71E0,4.3249E-1,6.721E-1,9.5E-1,4.196977E-2,-2.7205957E-2,8.189868E-2,1.1663965E-2,1.05E0,7.906E-1,-8.371275E-2,-2.0495554E-2,1.08969165E-2,-5.8775455E-2,7.127319E-2,-1.753625E-2],"split_indices":[5,7,5,6,8,3,3,0,0,0,0,6,3,0,0,0,0,0,0],"split_type":[0,0,0,0,0,0,0,0,0,0,0,0,0,0,0,0,0,0,0],"sum_hessian":[2.260829E1,9.033975E0,1.3574315E1,2.659491E0,6.374484E0,8.630891E0,4.943424E0,1.6199195E0,1.0395715E0,5.3734083E0,1.0010754E0,5.3698387E0,3.261052E0,3.8249624E0,1.1184616E0,1.3140743E0,4.0557647E0,2.2260256E0,1.0350263E0],"tree_param":{"num_deleted":"0","num_feature":"11","num_nodes":"19","size_leaf_vector":"1"}},{"base_weights":[4.616312E-2,7.160212E-1,-2.8157246E-1,1.5793048E-2,7.7391945E-2,-8.15924E-2,-8.02528E-2,-3.0676955E-1,6.481224E-1,7.332454E-3,-4.440356E-2,1.8665832E-2,7.747445E-2],"categories":[],"categories_nodes":[],"categories_segments":[],"categories_sizes":[],"default_left":[0,0,0,0,0,0,0,0,0,0,0,0,0],"id":40,"left_children":[1,3,5,-1,-1,7,-1,9,11,-1,-1,-1,-1],"loss_changes":[5.3189836E0,1.3434124E-1,1.6399313E0,0E0,0E0,2.3254101E0,0E0,5.839819E-1,5.2488923E-2,0E0,0E0,0E0,0E0],"parents":[2147483647,0,0,1,1,2,2,5,5,7,7,8,8],"right_children":[2,4,6,-1,-1,8,-1,10,12,-1,-1,-1,-1],"split_conditions":[2.9E0,3.01E-2,3.84E0,1.5793048E-2,7.7391945E-2,3.446E-1,-8.02528E-2,9.5E-1,6.474E-1,7.332454E-3,-4.440356E-2,1.8665832E-2,7.747445E-2],"split_indices":[5,7,5,0,0,7,0,6,0,0,0,0,0],"split_type":[0,0,0,0,0,0,0,0,0,0,0,0,0],"sum_hessian":[2.2309912E1,6.9401665E0,1.5369744E1,1.0027008E0,5.9374657E0,1.1942122E1,3.4276216E0,9.568925E0,2.3731985E0,2.6624196E0,6.906505E0,1.0436902E0,1.3295082E0],"tree_param":{"num_deleted":"0","num_feature":"11","num_nodes":"13","size_leaf_vector":"1"}},{"base_weights":[7.199618E-2,6.0849696E-1,-2.4340014E-1,-2.9338792E-3,7.417905E-1,-5.0828665E-1,2.2310928E-1,2.0935183E-2,8.871379E-2,-7.3570734E-1,3.1986296E-2,-4.5066115E-2,4.7361234E-1,-8.670627E-2,-2.8712928E-2,-6.0978755E-3,6.3696295E-2],"categories":[],"categories_nodes":[],"categories_segments":[],"categories_sizes":[],"default_left":[0,0,0,0,0,0,0,0,0,0,0,0,0,0,0,0,0],"id":41,"left_children":[1,3,5,-1,7,9,11,-1,-1,13,-1,-1,15,-1,-1,-1,-1],"loss_changes":[4.0674357E0,7.751291E-1,2.0042222E0,0E0,3.8443375E-1,2.1309078E0,1.2660577E0,0E0,0E0,2.3417282E-1,0E0,0E0,4.7842884E-1,0E0,0E0,0E0,0E0],"parents":[2147483647,0,0,1,1,2,2,4,4,5,5,6,6,9,9,12,12],"right_children":[2,4,6,-1,8,10,12,-1,-1,14,-1,-1,16,-1,-1,-1,-1],"split_conditions":[2.94E0,2.173E-1,2.956E-1,-2.9338792E-3,6.61E-2,4.4E-1,5E0,2.0935183E-2,8.871379E-2,3.186E-1,3.1986296E-2,-4.5066115E-2,9.63E-2,-8.670627E-2,-2.8712928E-2,-6.0978755E-3,6.3696295E-2],"split_indices":[5,1,1,0,7,7,9,0,0,7,0,0,10,0,0,0,0],"split_type":[0,0,0,0,0,0,0,0,0,0,0,0,0,0,0,0,0],"sum_hessian":[2.2162455E1,7.8611093E0,1.4301346E1,1.4936404E0,6.367469E0,9.064769E0,5.2365766E0,1.888788E0,4.478681E0,7.1993566E0,1.8654119E0,1.2026964E0,4.03388E0,4.847089E0,2.352268E0,1.0907912E0,2.943089E0],"tree_param":{"num_deleted":"0","num_feature":"11","num_nodes":"17","size_leaf_vector":"1"}},{"base_weights":[-4.73335E-2,8.189261E-2,-2.5586703E-1,-5.3840536E-1,8.3646975E-2,-6.412052E-1,2.139202E-2,4.8708257E-1,-5.9340745E-1,-2.4040205E-2,-8.113884E-2,1.5414071E-2,7.988213E-2,-6.78633E-2,-1.7087454E-2],"categories":[],"categories_nodes":[],"categories_segments":[],"categories_sizes":[],"default_left":[0,0,0,0,0,0,0,0,0,0,0,0,0,0,0],"id":42,"left_children":[1,-1,3,5,7,9,-1,11,13,-1,-1,-1,-1,-1,-1],"loss_changes":[4.263488E0,0E0,1.8531787E0,9.4322443E-1,2.8640022E0,4.4745374E-1,0E0,5.469768E-1,2.7024984E-2,0E0,0E0,0E0,0E0,0E0,0E0],"parents":[2147483647,0,0,2,2,3,3,4,4,5,5,7,7,8,8],"right_children":[2,-1,4,6,8,10,-1,12,14,-1,-1,-1,-1,-1,-1],"split_conditions":[2.64E0,8.189261E-2,2.227E-1,3.947E-1,3.6E0,2.98E0,2.139202E-2,3.446E-1,2.261E-1,-2.4040205E-2,-8.113884E-2,1.5414071E-2,7.988213E-2,-6.78633E-2,-1.7087454E-2],"split_indices":[5,0,7,4,5,5,0,7,10,0,0,0,0,0,0],"split_type":[0,0,0,0,0,0,0,0,0,0,0,0,0,0,0],"sum_hessian":[2.144164E1,3.5922341E0,1.7849405E1,9.42241E0,8.426996E0,8.419631E0,1.0027783E0,5.456327E0,2.9706693E0,3.2285635E0,5.1910677E0,3.3610876E0,2.0952396E0,1.9676785E0,1.0029907E0],"tree_param":{"num_deleted":"0","num_feature":"11","num_nodes":"15","size_leaf_vector":"1"}},{"base_weights":[6.7718714E-2,-3.6197326E-1,4.9728546E-1,-5.358552E-1,3.851671E-2,6.635548E-1,-2.6638865E-2,2.0712179E-1,-8.126114E-2,-3.4213685E-3,7.527276E-1,-6.068964E-3,4.1157346E-2,8.831737E-2,3.9944403E-2],"categories":[],"categories_nodes":[],"categories_segments":[],"categories_sizes":[],"default_left":[0,0,0,0,0,0,0,0,0,0,0,0,0,0,0],"id":43,"left_children":[1,3,5,7,-1,9,-1,11,-1,-1,13,-1,-1,-1,-1],"loss_changes":[4.1272264E0,1.6704671E0,1.5881205E0,2.134098E0,0E0,6.115298E-1,0E0,2.1067879E-1,0E0,0E0,3.3916473E-2,0E0,0E0,0E0,0E0],"parents":[2147483647,0,0,1,1,2,2,3,3,5,5,7,7,10,10],"right_children":[2,4,6,8,-1,10,-1,12,-1,-1,14,-1,-1,-1,-1],"split_conditions":[2.731E-1,4.489E-1,3.45E0,2.84E0,3.851671E-2,3.4E-2,-2.6638865E-2,1.81E-1,-8.126114E-2,-3.4213685E-3,3.13E0,-6.068964E-3,4.1157346E-2,8.831737E-2,3.9944403E-2],"split_indices":[1,7,5,5,0,7,0,7,0,0,5,0,0,0,0],"split_type":[0,0,0,0,0,0,0,0,0,0,0,0,0,0,0],"sum_hessian":[2.0384726E1,1.0269543E1,1.0115183E1,8.560135E0,1.7094076E0,8.4143E0,1.7008835E0,2.3915129E0,6.168622E0,1.0233113E0,7.3909883E0,1.3397422E0,1.0517706E0,4.302454E0,3.0885346E0],"tree_param":{"num_deleted":"0","num_feature":"11","num_nodes":"15","size_leaf_vector":"1"}},{"base_weights":[2.6967647E-2,7.239334E-2,-1.07714206E-1,2.0270722E-3,-6.6646345E-2,-1.6568607E-1,7.634927E-2,-2.7480492E-2,2.5305098E-2],"categories":[],"categories_nodes":[],"categories_segments":[],"categories_sizes":[],"default_left":[0,0,0,0,0,0,0,0,0],"id":44,"left_children":[1,-1,3,5,-1,7,-1,-1,-1],"loss_changes":[1.9158268E0,0E0,1.0608435E0,2.0981991E0,0E0,6.852007E-1,0E0,0E0,0E0],"parents":[2147483647,0,0,2,2,3,3,5,5],"right_children":[2,-1,4,6,-1,8,-1,-1,-1],"split_conditions":[-2.56E-2,7.239334E-2,6.708E-1,3.709E-1,-6.6646345E-2,3.532E-1,7.634927E-2,-2.7480492E-2,2.5305098E-2],"split_indices":[0,0,0,7,0,4,0,0,0],"split_type":[0,0,0,0,0,0,0,0,0],"sum_hessian":[1.8578943E1,2.3002472E0,1.6278696E1,1.4439144E1,1.8395517E0,1.2474125E1,1.9650198E0,1.0168136E1,2.305989E0],"tree_param":{"num_deleted":"0","num_feature":"11","num_nodes":"9","size_leaf_vector":"1"}},{"base_weights":[2.5905704E-2,-3.1562445E-1,3.5516354E-1,6.148896E-2,-5.717941E-1,6.909897E-2,6.992864E-2,-2.748197E-1,4.7140602E-2,-6.115705E-3,-7.033694E-2,-2.0730002E-1,5.2014586E-2,1.4971109E-2,-5.049471E-2,1.08989235E-2,-3.5888787E-2],"categories":[],"categories_nodes":[],"categories_segments":[],"categories_sizes":[],"default_left":[0,0,0,0,0,0,0,0,0,0,0,0,0,0,0,0,0],"id":45,"left_children":[1,3,5,7,9,11,-1,13,-1,-1,-1,15,-1,-1,-1,-1,-1],"loss_changes":[2.4547608E0,1.0741675E0,1.0421565E0,8.5379285E-1,3.9381647E-1,1.0002854E0,0E0,4.1925022E-1,0E0,0E0,0E0,2.8621128E-1,0E0,0E0,0E0,0E0,0E0],"parents":[2147483647,0,0,1,1,2,2,3,3,4,4,5,5,7,7,11,11],"right_children":[2,4,6,8,10,12,-1,14,-1,-1,-1,16,-1,-1,-1,-1,-1],"split_conditions":[2.797E-1,1.031E-1,1.88E-1,6.46E-2,3.963E-1,3.885E-1,6.992864E-2,2.74E-2,4.7140602E-2,-6.115705E-3,-7.033694E-2,3.84E-1,5.2014586E-2,1.4971109E-2,-5.049471E-2,1.08989235E-2,-3.5888787E-2],"split_indices":[4,10,7,10,3,4,0,10,0,0,0,3,0,0,0,0,0],"split_type":[0,0,0,0,0,0,0,0,0,0,0,0,0,0,0,0,0],"sum_hessian":[1.9832651E1,9.755226E0,1.0077424E1,4.253506E0,5.5017204E0,6.158633E0,3.91879E0,2.5175788E0,1.7359273E0,1.4272896E0,4.074431E0,4.1536827E0,2.0049508E0,1.0078241E0,1.5097548E0,1.436801E0,2.7168815E0],"tree_param":{"num_deleted":"0","num_feature":"11","num_nodes":"17","size_leaf_vector":"1"}},{"base_weights":[2.1379067E-2,4.834595E-1,-4.5305032E-1,7.1615684E-1,9.942965E-2,-6.3484025E-1,8.2326345E-2,1.5349286E-2,7.954254E-2,-2.0457739E-1,6.1180968E-2,-8.0053633E-1,9.7951405E-3,3.8821027E-2,-2.6082719E-2,2.7067796E-3,-3.5371594E-2,-8.775163E-2,-2.201498E-2],"categories":[],"categories_nodes":[],"categories_segments":[],"categories_sizes":[],"default_left":[0,0,0,0,0,0,0,0,0,0,0,0,0,0,0,0,0,0,0],"id":46,"left_children":[1,3,5,7,9,11,13,-1,-1,15,-1,17,-1,-1,-1,-1,-1,-1,-1],"loss_changes":[4.523189E0,8.6084485E-1,1.0453374E0,1.6038871E-1,9.19039E-1,1.0172298E0,4.6565726E-1,0E0,0E0,1.4597054E-1,0E0,9.3426704E-2,0E0,0E0,0E0,0E0,0E0,0E0,0E0],"parents":[2147483647,0,0,1,1,2,2,3,3,4,4,5,5,6,6,9,9,11,11],"right_children":[2,4,6,8,10,12,14,-1,-1,16,-1,18,-1,-1,-1,-1,-1,-1,-1],"split_conditions":[3.19E0,2.9E0,3.351E-1,1.208E-1,5.881E-1,4.489E-1,1.491E-1,1.5349286E-2,7.954254E-2,1.7E-1,6.1180968E-2,3.076E-1,9.7951405E-3,3.8821027E-2,-2.6082719E-2,2.7067796E-3,-3.5371594E-2,-8.775163E-2,-2.201498E-2],"split_indices":[5,5,4,8,3,7,0,0,0,0,0,4,0,0,0,0,0,0,0],"split_type":[0,0,0,0,0,0,0,0,0,0,0,0,0,0,0,0,0,0,0],"sum_hessian":[1.8633556E1,9.429988E0,9.203568E0,5.3334284E0,4.09656E0,6.731926E0,2.4716427E0,1.0211895E0,4.3122387E0,2.9481091E0,1.1484509E0,5.415048E0,1.3168778E0,1.2373649E0,1.2342777E0,1.4752402E0,1.472869E0,4.328927E0,1.0861211E0],"tree_param":{"num_deleted":"0","num_feature":"11","num_nodes":"19","size_leaf_vector":"1"}},{"base_weights":[2.1544589E-2,-3.8078332E-1,5.012931E-1,-5.074806E-1,6.5024574E-3,-1.0720754E-2,5.9059227E-1,-6.590262E-1,-1.7852218E-1,-3.343565E-2,3.0082485E-2,6.5144616E-1,9.2960885E-3,-7.533073E-2,-1.8650258E-2,1.5487151E-2,-5.0341815E-2,1.7834855E-2,7.2828405E-2],"categories":[],"categories_nodes":[],"categories_segments":[],"categories_sizes":[],"default_left":[0,0,0,0,0,0,0,0,0,0,0,0,0,0,0,0,0,0,0],"id":47,"left_children":[1,3,5,7,9,-1,11,13,15,-1,-1,17,-1,-1,-1,-1,-1,-1,-1],"loss_changes":[3.8404956E0,5.3579986E-1,5.554087E-1,2.9062986E-1,4.6800786E-1,0E0,1.8324089E-1,9.273982E-2,5.063108E-1,0E0,0E0,1.248312E-1,0E0,0E0,0E0,0E0,0E0,0E0,0E0],"parents":[2147483647,0,0,1,1,2,2,3,3,4,4,6,6,7,7,8,8,11,11],"right_children":[2,4,6,8,10,-1,12,14,16,-1,-1,18,-1,-1,-1,-1,-1,-1,-1],"split_conditions":[2.798E-1,2.797E-1,2.71E-2,2.193E-1,6E0,-1.0720754E-2,1.74E0,1.6E0,1.56E0,-3.343565E-2,3.0082485E-2,7.1E-1,9.2960885E-3,-7.533073E-2,-1.8650258E-2,1.5487151E-2,-5.0341815E-2,1.7834855E-2,7.2828405E-2],"split_indices":[1,4,7,1,9,0,6,6,6,0,0,6,0,0,0,0,0,0,0],"split_type":[0,0,0,0,0,0,0,0,0,0,0,0,0,0,0,0,0,0,0],"sum_hessian":[1.7908316E1,9.852268E0,8.056048E0,7.1898255E0,2.6624424E0,1.0052881E0,7.05076E0,4.235315E0,2.9545107E0,1.1706616E0,1.4917809E0,6.007078E0,1.0436816E0,3.0354416E0,1.199873E0,1.7164679E0,1.2380428E0,1.3033481E0,4.70373E0],"tree_param":{"num_deleted":"0","num_feature":"11","num_nodes":"19","size_leaf_vector":"1"}},{"base_weights":[1.9275459E-2,-2.697758E-1,4.8261228E-1,-5.944875E-1,7.702295E-2,7.911813E-2,7.560126E-2,5.019329E-3,-7.3791707E-1,4.864098E-1,-5.264517E-1,4.2119768E-2,-3.0815799E-2,-8.5307516E-2,-2.0552909E-2,7.404601E-2,1.1344477E-2,-6.2044162E-2,-1.5969003E-2],"categories":[],"categories_nodes":[],"categories_segments":[],"categories_sizes":[],"default_left":[0,0,0,0,0,0,0,0,0,0,0,0,0,0,0,0,0,0,0],"id":48,"left_children":[1,3,5,7,9,11,-1,-1,13,15,17,-1,-1,-1,-1,-1,-1,-1,-1],"loss_changes":[2.6290622E0,1.4119236E0,7.704922E-1,6.269748E-1,1.9240813E0,6.805024E-1,0E0,0E0,1.4853764E-1,3.4640312E-1,1.1547029E-2,0E0,0E0,0E0,0E0,0E0,0E0,0E0,0E0],"parents":[2147483647,0,0,1,1,2,2,3,3,4,4,5,5,8,8,9,9,10,10],"right_children":[2,4,6,8,10,12,-1,-1,14,16,18,-1,-1,-1,-1,-1,-1,-1,-1],"split_conditions":[2.994E-1,2.392E-1,1.209E-1,3.326E-1,7.906E-1,1.48E0,7.560126E-2,5.019329E-3,2.737E-1,9.2E-1,1.13E0,4.2119768E-2,-3.0815799E-2,-8.5307516E-2,-2.0552909E-2,7.404601E-2,1.1344477E-2,-6.2044162E-2,-1.5969003E-2],"split_indices":[1,7,7,3,3,6,0,0,1,6,6,0,0,0,0,0,0,0,0],"split_type":[0,0,0,0,0,0,0,0,0,0,0,0,0,0,0,0,0,0,0],"sum_hessian":[1.7658258E1,1.1131598E1,6.5266595E0,5.3800144E0,5.7515845E0,3.1569312E0,3.3697286E0,1.0974214E0,4.282593E0,3.542439E0,2.2091453E0,1.6297708E0,1.5271604E0,3.0257516E0,1.2568411E0,1.521033E0,2.021406E0,1.2079175E0,1.0012279E0],"tree_param":{"num_deleted":"0","num_feature":"11","num_nodes":"19","size_leaf_vector":"1"}},{"base_weights":[-8.396751E-3,5.2372116E-1,-3.112347E-1,1.3493837E-2,7.1871154E-2,-6.121784E-1,-2.3179552E-2,1.3028246E-2,-1.1096217E-2,-8.347735E-2,1.1809389E-2,3.6739597E-1,-6.94651E-2,-4.034259E-3,5.49963E-2],"categories":[],"categories_nodes":[],"categories_segments":[],"categories_sizes":[],"default_left":[0,0,0,0,0,0,0,0,0,0,0,0,0,0,0],"id":49,"left_children":[1,3,5,7,-1,9,11,-1,-1,-1,-1,13,-1,-1,-1],"loss_changes":[3.2199998E0,7.1193063E-1,1.0882357E0,5.84199E-2,0E0,1.1031818E0,2.2318807E0,0E0,0E0,0E0,0E0,4.2559856E-1,0E0,0E0,0E0],"parents":[2147483647,0,0,1,1,2,2,3,3,5,5,6,6,11,11],"right_children":[2,4,6,8,-1,10,12,-1,-1,-1,-1,14,-1,-1,-1],"split_conditions":[2.94E0,7.35E-2,1.861E-1,1.67E0,7.1871154E-2,3.696E-1,3.6E0,1.3028246E-2,-1.1096217E-2,-8.347735E-2,1.1809389E-2,2.425E-1,-6.94651E-2,-4.034259E-3,5.49963E-2],"split_indices":[5,7,7,6,0,4,5,0,0,0,0,4,0,0,0],"split_type":[0,0,0,0,0,0,0,0,0,0,0,0,0,0,0],"sum_hessian":[1.797043E1,6.2533193E0,1.1717112E1,2.0246537E0,4.2286654E0,5.1800632E0,6.537049E0,1.0203496E0,1.004304E0,3.8603015E0,1.3197615E0,4.4193125E0,2.1177366E0,1.6077185E0,2.8115938E0],"tree_param":{"num_deleted":"0","num_feature":"11","num_nodes":"15","size_leaf_vector":"1"}},{"base_weights":[5.3057957E-2,6.429464E-2,-8.881997E-2,2.9915684E-1,-2.8436399E-1,4.4833216E-1,-1.8096413E-2,-3.5961917E-1,2.1705395E-2,-5.755292E-3,6.128366E-2,-5.33867E-2,-1.15515245E-2],"categories":[],"categories_nodes":[],"categories_segments":[],"categories_sizes":[],"default_left":[0,0,0,0,0,0,0,0,0,0,0,0,0],"id":50,"left_children":[1,-1,3,5,7,9,-1,11,-1,-1,-1,-1,-1],"loss_changes":[1.5706236E0,0E0,1.2577155E0,4.8701692E-1,4.851972E-1,4.190176E-1,0E0,3.5338354E-1,0E0,0E0,0E0,0E0,0E0],"parents":[2147483647,0,0,2,2,3,3,4,4,5,5,7,7],"right_children":[2,-1,4,6,8,10,-1,12,-1,-1,-1,-1,-1],"split_conditions":[4.81E-2,6.429464E-2,1.02E0,8.144E-1,1.93E0,5.018E-1,-1.8096413E-2,2.855E-1,2.1705395E-2,-5.755292E-3,6.128366E-2,-5.33867E-2,-1.15515245E-2],"split_indices":[0,0,6,2,6,2,0,0,0,0,0,0,0],"split_type":[0,0,0,0,0,0,0,0,0,0,0,0,0],"sum_hessian":[1.708434E1,2.6276448E0,1.4456694E1,4.6670265E0,9.789667E0,3.611218E0,1.0558084E0,8.7580185E0,1.0316494E0,1.04568E0,2.565538E0,4.4175825E0,4.3404355E0],"tree_param":{"num_deleted":"0","num_feature":"11","num_nodes":"13","size_leaf_vector":"1"}},{"base_weights":[6.065193E-2,-4.067011E-1,2.4429585E-1,-2.6844088E-3,-5.5743393E-2,4.7478423E-2,5.4101354E-1,2.5824988E-1,-4.3896106E-1,7.260634E-2,2.2661375E-1,4.5362366E-3,6.4973794E-2,-5.807373E-2,-8.957378E-3,-1.00102285E-2,4.6752136E-2],"categories":[],"categories_nodes":[],"categories_segments":[],"categories_sizes":[],"default_left":[0,0,0,0,0,0,0,0,0,0,0,0,0,0,0,0,0],"id":51,"left_children":[1,3,5,-1,-1,7,9,11,13,-1,15,-1,-1,-1,-1,-1,-1],"loss_changes":[1.6911933E0,3.060959E-1,7.88387E-1,0E0,0E0,1.0850084E0,1.5329182E-1,5.7406145E-1,1.0824329E-1,0E0,3.2052892E-1,0E0,0E0,0E0,0E0,0E0,0E0],"parents":[2147483647,0,0,1,1,2,2,5,5,6,6,7,7,8,8,10,10],"right_children":[2,4,6,-1,-1,8,10,12,14,-1,16,-1,-1,-1,-1,-1,-1],"split_conditions":[2.312E-1,8.56E-2,2.175E-1,-2.6844088E-3,-5.5743393E-2,5.428E-1,6.938E-1,3.885E-1,3.334E-1,7.260634E-2,3.353E-1,4.5362366E-3,6.4973794E-2,-5.807373E-2,-8.957378E-3,-1.00102285E-2,4.6752136E-2],"split_indices":[1,10,7,0,0,2,2,4,1,0,7,0,0,0,0,0,0],"split_type":[0,0,0,0,0,0,0,0,0,0,0,0,0,0,0,0,0],"sum_hessian":[1.7547153E1,4.6073503E0,1.2939802E1,1.6435595E0,2.963791E0,8.4769335E0,4.462869E0,6.24159E0,2.2353432E0,1.9851081E0,2.4777613E0,4.7658415E0,1.4757482E0,1.1190785E0,1.1162648E0,1.2996584E0,1.1781027E0],"tree_param":{"num_deleted":"0","num_feature":"11","num_nodes":"17","size_leaf_vector":"1"}},{"base_weights":[-4.990632E-3,3.30213E-1,-3.8713458E-1,5.7178444E-1,-1.337205E-1,-5.283743E-1,9.895724E-3,6.95104E-1,2.6174835E-3,-3.874799E-2,1.9756757E-2,-1.3396469E-1,-7.297358E-2,1.2494144E-2,8.106237E-2,-3.713533E-2,1.9970292E-2],"categories":[],"categories_nodes":[],"categories_segments":[],"categories_sizes":[],"default_left":[0,0,0,0,0,0,0,0,0,0,0,0,0,0,0,0,0],"id":52,"left_children":[1,3,5,7,9,11,-1,13,-1,-1,-1,15,-1,-1,-1,-1,-1],"loss_changes":[2.4256873E0,1.2079307E0,6.5938354E-1,4.4125462E-1,4.353003E-1,4.5893097E-1,0E0,2.6298475E-1,0E0,0E0,0E0,3.5883507E-1,0E0,0E0,0E0,0E0,0E0],"parents":[2147483647,0,0,1,1,2,2,3,3,4,4,5,5,7,7,11,11],"right_children":[2,4,6,8,10,12,-1,14,-1,-1,-1,16,-1,-1,-1,-1,-1],"split_conditions":[3.22E0,1.56E0,3.976E-1,1E1,2.838E-1,3.45E0,9.895724E-3,8.18E-2,2.6174835E-3,-3.874799E-2,1.9756757E-2,3.122E-1,-7.297358E-2,1.2494144E-2,8.106237E-2,-3.713533E-2,1.9970292E-2],"split_indices":[5,6,7,9,4,5,0,7,0,0,0,4,0,0,0,0,0],"split_type":[0,0,0,0,0,0,0,0,0,0,0,0,0,0,0,0,0],"sum_hessian":[1.6938496E1,9.095834E0,7.842662E0,5.8284655E0,3.2673686E0,6.009536E0,1.8331263E0,4.5304837E0,1.297982E0,1.7541286E0,1.51324E0,2.593975E0,3.4155607E0,1.113958E0,3.4165256E0,1.4496642E0,1.1443107E0],"tree_param":{"num_deleted":"0","num_feature":"11","num_nodes":"17","size_leaf_vector":"1"}},{"base_weights":[-3.672021E-2,2.438074E-1,-6.698458E-1,-2.2006398E-2,5.3273827E-1,-8.2270674E-2,6.3716754E-4,6.484165E-2,-3.2975146E-1,9.211295E-3,6.537413E-2,-6.338357E-2,3.239313E-3],"categories":[],"categories_nodes":[],"categories_segments":[],"categories_sizes":[],"default_left":[0,0,0,0,0,0,0,0,0,0,0,0,0],"id":53,"left_children":[1,3,5,7,9,-1,-1,-1,11,-1,-1,-1,-1],"loss_changes":[3.2270124E0,9.8606855E-1,5.80292E-1,1.7752216E0,2.6600623E-1,0E0,0E0,0E0,6.6472954E-1,0E0,0E0,0E0,0E0],"parents":[2147483647,0,0,1,1,2,2,3,3,4,4,8,8],"right_children":[2,4,6,8,10,-1,-1,-1,12,-1,-1,-1,-1],"split_conditions":[3.45E0,5.178E-1,3.334E-1,2.64E0,2.349E-1,-8.2270674E-2,6.3716754E-4,6.484165E-2,2.798E-1,9.211295E-3,6.537413E-2,-6.338357E-2,3.239313E-3],"split_indices":[5,3,1,5,1,0,0,0,1,0,0,0,0],"split_type":[0,0,0,0,0,0,0,0,0,0,0,0,0],"sum_hessian":[1.6249662E1,1.1686485E1,4.563176E0,6.5679064E0,5.1185794E0,3.5451534E0,1.0180229E0,1.7180784E0,4.849828E0,1.4822607E0,3.6363187E0,2.228435E0,2.6213927E0],"tree_param":{"num_deleted":"0","num_feature":"11","num_nodes":"13","size_leaf_vector":"1"}},{"base_weights":[3.7809107E-2,-3.2822534E-1,3.0512816E-1,-4.8047322E-1,2.1544801E-2,1.4066981E-1,7.808144E-2,-5.403005E-2,-1.049638E-2,3.9956874E-1,-3.1198233E-1,6.9307177E-3,5.046311E-2,-5.316478E-2,4.091405E-3],"categories":[],"categories_nodes":[],"categories_segments":[],"categories_sizes":[],"default_left":[0,0,0,0,0,0,0,0,0,0,0,0,0,0,0],"id":54,"left_children":[1,3,5,7,-1,9,-1,-1,-1,11,13,-1,-1,-1,-1],"loss_changes":[1.7287722E0,7.2488284E-1,6.832289E-1,8.199477E-2,0E0,1.150418E0,0E0,0E0,0E0,1.7344213E-1,3.1216133E-1,0E0,0E0,0E0,0E0],"parents":[2147483647,0,0,1,1,2,2,3,3,5,5,9,9,10,10],"right_children":[2,4,6,8,-1,10,-1,-1,-1,12,14,-1,-1,-1,-1],"split_conditions":[2.597E-1,4.489E-1,3.03E-1,1E1,2.1544801E-2,5.329E-1,7.808144E-2,-5.403005E-2,-1.049638E-2,2.994E-1,1.88E-1,6.9307177E-3,5.046311E-2,-5.316478E-2,4.091405E-3],"split_indices":[1,7,7,9,0,2,0,0,0,1,7,0,0,0,0],"split_type":[0,0,0,0,0,0,0,0,0,0,0,0,0,0,0],"sum_hessian":[1.5644403E1,6.506857E0,9.137547E0,5.174156E0,1.3327011E0,7.7528753E0,1.3846713E0,4.0845475E0,1.0896084E0,5.006582E0,2.746293E0,1.6088542E0,3.397728E0,1.3804717E0,1.3658215E0],"tree_param":{"num_deleted":"0","num_feature":"11","num_nodes":"15","size_leaf_vector":"1"}},{"base_weights":[1.2695196E-2,6.2897146E-2,-9.317552E-2,-4.5565432E-1,3.9495956E-2,-6.521873E-2,-7.933754E-3,1.6732079E-1,-5.7504963E-2,1.0468373E-3,6.526633E-2],"categories":[],"categories_nodes":[],"categories_segments":[],"categories_sizes":[],"default_left":[0,0,0,0,0,0,0,0,0,0,0],"id":55,"left_children":[1,-1,3,5,7,-1,-1,9,-1,-1,-1],"loss_changes":[1.1461554E0,0E0,7.439641E-1,2.5330484E-1,1.0366106E0,0E0,0E0,8.065562E-1,0E0,0E0,0E0],"parents":[2147483647,0,0,2,2,3,3,4,4,7,7],"right_children":[2,-1,4,6,8,-1,-1,10,-1,-1,-1],"split_conditions":[-2.56E-2,6.2897146E-2,8.18E-2,3.351E-1,6.708E-1,-6.521873E-2,-7.933754E-3,3.559E-1,-5.7504963E-2,1.0468373E-3,6.526633E-2],"split_indices":[0,0,7,4,0,0,0,7,0,0,0],"split_type":[0,0,0,0,0,0,0,0,0,0,0],"sum_hessian":[1.5668563E1,1.5727286E0,1.4095834E1,3.1245713E0,1.0971263E1,1.5710194E0,1.5535518E0,9.6846075E0,1.2866555E0,8.091254E0,1.5933529E0],"tree_param":{"num_deleted":"0","num_feature":"11","num_nodes":"11","size_leaf_vector":"1"}},{"base_weights":[-1.5483667E-2,6.1219347E-1,-3.028116E-1,6.4174207E-3,8.0315016E-2,-6.6488683E-1,1.3332155E-3,-1.9308507E-2,-7.4976325E-2,-3.958005E-1,6.1388146E-2,2.9861505E-4,-5.800688E-2],"categories":[],"categories_nodes":[],"categories_segments":[],"categories_sizes":[],"default_left":[0,0,0,0,0,0,0,0,0,0,0,0,0],"id":56,"left_children":[1,3,5,-1,-1,7,9,-1,-1,11,-1,-1,-1],"loss_changes":[2.848561E0,4.6834743E-1,1.190089E0,0E0,0E0,5.272937E-2,1.9134443E0,0E0,0E0,3.525415E-1,0E0,0E0,0E0],"parents":[2147483647,0,0,1,1,2,2,5,5,6,6,9,9],"right_children":[2,4,6,-1,-1,8,10,-1,-1,12,-1,-1,-1],"split_conditions":[2.89E0,7.35E-2,2.559E-1,6.4174207E-3,8.0315016E-2,7.77E-2,2.175E-1,-1.9308507E-2,-7.4976325E-2,3.22E0,6.1388146E-2,2.9861505E-4,-5.800688E-2],"split_indices":[5,7,1,0,0,10,7,0,0,5,0,0,0],"split_type":[0,0,0,0,0,0,0,0,0,0,0,0,0],"sum_hessian":[1.3766808E1,3.9679809E0,9.798826E0,1.3706039E0,2.5973768E0,3.9319143E0,5.8669124E0,1.0988188E0,2.8330956E0,3.7739751E0,2.0929372E0,1.5036421E0,2.270333E0],"tree_param":{"num_deleted":"0","num_feature":"11","num_nodes":"13","size_leaf_vector":"1"}},{"base_weights":[-1.8567007E-2,-2.2510318E-1,5.12231E-1,-3.3146107E-1,3.627014E-2,1.2081646E-2,7.365999E-2,-1.5909977E-1,-6.9676824E-2,-3.4627017E-2,4.4833757E-2],"categories":[],"categories_nodes":[],"categories_segments":[],"categories_sizes":[],"default_left":[0,0,0,0,0,0,0,0,0,0,0],"id":57,"left_children":[1,3,5,7,-1,-1,-1,9,-1,-1,-1],"loss_changes":[1.838985E0,8.712709E-1,3.2459664E-1,5.6256795E-1,0E0,0E0,0E0,1.1287589E0,0E0,0E0,0E0],"parents":[2147483647,0,0,1,1,2,2,3,3,7,7],"right_children":[2,4,6,8,-1,-1,-1,10,-1,-1,-1],"split_conditions":[3.334E-1,4.489E-1,1.209E-1,6.938E-1,3.627014E-2,1.2081646E-2,7.365999E-2,2.569E-1,-6.9676824E-2,-3.4627017E-2,4.4833757E-2],"split_indices":[1,7,7,2,0,0,0,7,0,0,0],"split_type":[0,0,0,0,0,0,0,0,0,0,0],"sum_hessian":[1.4722849E1,1.1013396E1,3.7094524E0,9.695235E0,1.3181612E0,1.9121513E0,1.797301E0,7.562552E0,2.1326833E0,6.1098623E0,1.4526899E0],"tree_param":{"num_deleted":"0","num_feature":"11","num_nodes":"11","size_leaf_vector":"1"}},{"base_weights":[6.7085385E-2,-3.0087385E-1,3.178076E-1,-4.6762407E-1,2.5751857E-2,1.4357673E-3,5.320505E-1,-5.9702557E-2,-1.6721258E-1,3.4324255E-2,-2.926037E-1,6.3116156E-2,5.0671464E-3,2.7520588E-2,-5.3189933E-2,-5.3142E-2,1.0819017E-2],"categories":[],"categories_nodes":[],"categories_segments":[],"categories_sizes":[],"default_left":[0,0,0,0,0,0,0,0,0,0,0,0,0,0,0,0,0],"id":58,"left_children":[1,3,5,7,-1,9,11,-1,13,-1,15,-1,-1,-1,-1,-1,-1],"loss_changes":[1.5060709E0,7.451476E-1,6.485131E-1,1.1481738E-1,0E0,5.899327E-1,2.4038088E-1,0E0,6.3870966E-1,0E0,3.5976264E-1,0E0,0E0,0E0,0E0,0E0,0E0],"parents":[2147483647,0,0,1,1,2,2,3,3,5,5,6,6,8,8,10,10],"right_children":[2,4,6,8,-1,10,12,-1,14,-1,16,-1,-1,-1,-1,-1,-1],"split_conditions":[2.552E-1,4.489E-1,1.209E-1,2.541E-1,2.5751857E-2,4.423E-1,1E1,-5.9702557E-2,5.236E-1,3.4324255E-2,3.86E-1,6.3116156E-2,5.0671464E-3,2.7520588E-2,-5.3189933E-2,-5.3142E-2,1.0819017E-2],"split_indices":[1,7,7,7,0,2,9,0,0,0,4,0,0,0,0,0,0],"split_type":[0,0,0,0,0,0,0,0,0,0,0,0,0,0,0,0,0],"sum_hessian":[1.4288519E1,5.7093964E0,8.579123E0,4.521665E0,1.1877315E0,3.8704064E0,4.7087164E0,2.470251E0,2.0514138E0,1.7124408E0,2.1579654E0,3.6467369E0,1.0619793E0,1.0377883E0,1.0136254E0,1.1480011E0,1.0099645E0],"tree_param":{"num_deleted":"0","num_feature":"11","num_nodes":"17","size_leaf_vector":"1"}},{"base_weights":[3.1443056E-2,3.4270287E-1,-3.4325346E-1,-2.555643E-2,4.7269902E-1,-4.9951246E-1,1.3941648E-2,2.79553E-4,5.8885276E-1,-6.4811625E-2,-1.1462334E-2,7.1957186E-2,7.915261E-3],"categories":[],"categories_nodes":[],"categories_segments":[],"categories_sizes":[],"default_left":[0,0,0,0,0,0,0,0,0,0,0,0,0],"id":59,"left_children":[1,3,5,-1,7,9,-1,-1,11,-1,-1,-1,-1],"loss_changes":[1.8914889E0,8.0585885E-1,6.2784064E-1,0E0,4.124626E-1,2.5797594E-1,0E0,0E0,3.480432E-1,0E0,0E0,0E0,0E0],"parents":[2147483647,0,0,1,1,2,2,4,4,5,5,8,8],"right_children":[2,4,6,-1,8,10,-1,-1,12,-1,-1,-1,-1],"split_conditions":[3.22E0,2.71E-2,4.003E-1,-2.555643E-2,1.6008E-1,3.122E-1,1.3941648E-2,2.79553E-4,1E1,-6.4811625E-2,-1.1462334E-2,7.1957186E-2,7.915261E-3],"split_indices":[5,7,7,0,8,4,0,0,9,0,0,0,0],"split_type":[0,0,0,0,0,0,0,0,0,0,0,0,0],"sum_hessian":[1.4209516E1,7.808441E0,6.401074E0,1.2213975E0,6.5870433E0,4.809242E0,1.5918326E0,1.5084859E0,5.0785575E0,2.9762306E0,1.8330109E0,3.714239E0,1.3643187E0],"tree_param":{"num_deleted":"0","num_feature":"11","num_nodes":"13","size_leaf_vector":"1"}},{"base_weights":[-7.111724E-3,2.188288E-1,-5.751135E-1,-1.0504808E-1,5.0004226E-1,-7.0459805E-2,-8.770286E-3,-4.1083828E-1,3.286713E-2,-1.11882975E-2,6.521726E-2,1.0705546E-3,-5.6357384E-2],"categories":[],"categories_nodes":[],"categories_segments":[],"categories_sizes":[],"default_left":[0,0,0,0,0,0,0,0,0,0,0,0,0],"id":60,"left_children":[1,3,5,7,9,-1,-1,11,-1,-1,-1,-1,-1],"loss_changes":[1.9160378E0,1.0274353E0,2.0613706E-1,9.044071E-1,6.2248886E-1,0E0,0E0,2.537043E-1,0E0,0E0,0E0,0E0,0E0],"parents":[2147483647,0,0,1,1,2,2,3,3,4,4,7,7],"right_children":[2,4,6,8,10,-1,-1,12,-1,-1,-1,-1,-1],"split_conditions":[3.45E0,2.731E-1,3.027E-1,2.354E-1,2.85E-2,-7.0459805E-2,-8.770286E-3,3.479E-1,3.286713E-2,-1.11882975E-2,6.521726E-2,1.0705546E-3,-5.6357384E-2],"split_indices":[5,1,1,7,7,0,0,3,0,0,0,0,0],"split_type":[0,0,0,0,0,0,0,0,0,0,0,0,0],"sum_hessian":[1.2949364E1,9.704023E0,3.2453406E0,4.8010473E0,4.902976E0,2.2120876E0,1.0332528E0,2.846736E0,1.9543116E0,1.0289024E0,3.8740737E0,1.0044374E0,1.8422984E0],"tree_param":{"num_deleted":"0","num_feature":"11","num_nodes":"13","size_leaf_vector":"1"}},{"base_weights":[-1.8336523E-2,5.604027E-2,-1.1583568E-1,-2.3686206E-1,3.0622494E-1,-3.4941664E-1,1.74619E-2,5.835832E-2,-6.9953487E-3,3.5661699E-3,-4.0901545E-2],"categories":[],"categories_nodes":[],"categories_segments":[],"categories_sizes":[],"default_left":[0,0,0,0,0,0,0,0,0,0,0],"id":61,"left_children":[1,-1,3,5,7,9,-1,-1,-1,-1,-1],"loss_changes":[8.6086065E-1,0E0,7.3151267E-1,5.5146873E-1,3.8628834E-1,2.1306992E-1,0E0,0E0,0E0,0E0,0E0],"parents":[2147483647,0,0,2,2,3,3,4,4,5,5],"right_children":[2,-1,4,6,8,10,-1,-1,-1,-1,-1],"split_conditions":[-2.56E-2,5.604027E-2,3.737E-1,3.696E-1,7.95E-1,2.86E-2,1.74619E-2,5.835832E-2,-6.9953487E-3,3.5661699E-3,-4.0901545E-2],"split_indices":[0,0,7,4,3,10,0,0,0,0,0],"split_type":[0,0,0,0,0,0,0,0,0,0,0],"sum_hessian":[1.3105871E1,1.2050601E0,1.1900811E1,9.589738E0,2.3110726E0,7.6484494E0,1.9412887E0,1.0129056E0,1.2981671E0,1.0789299E0,6.5695195E0],"tree_param":{"num_deleted":"0","num_feature":"11","num_nodes":"11","size_leaf_vector":"1"}},{"base_weights":[6.0623113E-2,-5.325214E-2,1.4428508E-1,3.0532076E-3,5.09203E-1,1.5604366E-1,-2.3307237E-1,1.4900279E-2,6.8706065E-2,-1.00838486E-4,5.4989357E-2,-3.7408143E-2,1.3674772E-2],"categories":[],"categories_nodes":[],"categories_segments":[],"categories_sizes":[],"default_left":[0,0,0,0,0,0,0,0,0,0,0,0,0],"id":62,"left_children":[1,-1,3,5,7,9,11,-1,-1,-1,-1,-1,-1],"loss_changes":[8.114032E-1,0E0,7.07598E-1,4.310853E-1,1.4320946E-1,4.4772857E-1,2.960941E-1,0E0,0E0,0E0,0E0,0E0,0E0],"parents":[2147483647,0,0,2,2,3,3,4,4,5,5,6,6],"right_children":[2,-1,4,6,8,10,12,-1,-1,-1,-1,-1,-1],"split_conditions":[1.064E-1,-5.325214E-2,3.03E-1,5.428E-1,2.502E-1,3.885E-1,4.1921E-1,1.4900279E-2,6.8706065E-2,-1.00838486E-4,5.4989357E-2,-3.7408143E-2,1.3674772E-2],"split_indices":[4,0,7,2,4,4,8,0,0,0,0,0,0],"split_type":[0,0,0,0,0,0,0,0,0,0,0,0,0],"sum_hessian":[1.380279E1,1.0430001E0,1.2759789E1,9.926403E0,2.8333862E0,6.2294006E0,3.697003E0,1.5440716E0,1.2893147E0,5.1666007E0,1.0627999E0,2.6681416E0,1.0288612E0],"tree_param":{"num_deleted":"0","num_feature":"11","num_nodes":"13","size_leaf_vector":"1"}},{"base_weights":[8.168147E-2,-3.575751E-1,2.4731384E-1,-4.7939874E-2,-1.1885493E-2,-3.202821E-2,4.2201015E-1,3.5995137E-2,-2.552236E-1,5.0981635E-1,1.3796039E-3,-4.2523555E-2,7.0734735E-4,1.659035E-2,6.335701E-2],"categories":[],"categories_nodes":[],"categories_segments":[],"categories_sizes":[],"default_left":[0,0,0,0,0,0,0,0,0,0,0,0,0,0,0],"id":63,"left_children":[1,3,5,-1,-1,7,9,-1,11,13,-1,-1,-1,-1,-1],"loss_changes":[1.0980566E0,6.541747E-2,5.3413E-1,0E0,0E0,5.323012E-1,2.3075747E-1,0E0,1.7214432E-1,1.2607324E-1,0E0,0E0,0E0,0E0,0E0],"parents":[2147483647,0,0,1,1,2,2,5,5,6,6,8,8,9,9],"right_children":[2,4,6,-1,-1,8,10,-1,12,14,-1,-1,-1,-1,-1],"split_conditions":[2.193E-1,2.88E-1,1.337E-1,-4.7939874E-2,-1.1885493E-2,7.02E-2,7.906E-1,3.5995137E-2,3.086E-1,2.01E-1,1.3796039E-3,-4.2523555E-2,7.0734735E-4,1.659035E-2,6.335701E-2],"split_indices":[1,7,7,0,0,0,3,0,1,7,0,0,0,0,0],"split_type":[0,0,0,0,0,0,0,0,0,0,0,0,0,0,0],"sum_hessian":[1.2877009E1,3.2086997E0,9.668309E0,1.4569733E0,1.7517264E0,4.0342097E0,5.6340995E0,1.241372E0,2.7928379E0,4.4319086E0,1.2021911E0,1.3176099E0,1.4752278E0,1.7921367E0,2.639772E0],"tree_param":{"num_deleted":"0","num_feature":"11","num_nodes":"15","size_leaf_vector":"1"}},{"base_weights":[1.0657177E-1,4.4433996E-1,-2.5078735E-1,-4.692366E-3,6.2527776E-1,-4.74152E-1,8.439429E-2,7.747294E-2,2.8747562E-1,-6.594671E-2,7.6282993E-3,4.323361E-2,-3.4392107E-2,-7.510882E-3,5.1107533E-2],"categories":[],"categories_nodes":[],"categories_segments":[],"categories_sizes":[],"default_left":[0,0,0,0,0,0,0,0,0,0,0,0,0,0,0],"id":64,"left_children":[1,3,5,-1,7,9,11,-1,13,-1,-1,-1,-1,-1,-1],"loss_changes":[1.8324813E0,7.12968E-1,6.0657495E-1,0E0,6.456995E-2,5.2893984E-1,7.262003E-1,0E0,3.0879956E-1,0E0,0E0,0E0,0E0,0E0,0E0],"parents":[2147483647,0,0,1,1,2,2,4,4,5,5,6,6,8,8],"right_children":[2,4,6,-1,8,10,12,-1,14,-1,-1,-1,-1,-1,-1],"split_conditions":[3.22E0,7.35E-2,7.746E-1,-4.692366E-3,2.9E0,3.711E-1,3.6E0,7.747294E-2,2.731E-1,-6.594671E-2,7.6282993E-3,4.323361E-2,-3.4392107E-2,-7.510882E-3,5.1107533E-2],"split_indices":[5,7,2,0,5,1,5,0,1,0,0,0,0,0,0],"split_type":[0,0,0,0,0,0,0,0,0,0,0,0,0,0,0],"sum_hessian":[1.3258341E1,6.6908727E0,6.5674686E0,2.000362E0,4.6905107E0,3.6923072E0,2.8751614E0,2.3551126E0,2.3353982E0,2.6141253E0,1.0781819E0,1.581248E0,1.2939134E0,1.1441545E0,1.1912436E0],"tree_param":{"num_deleted":"0","num_feature":"11","num_nodes":"15","size_leaf_vector":"1"}},{"base_weights":[2.3886986E-2,6.442147E-2,-1.1399858E-1,2.5178868E-1,-3.4696326E-1,4.852523E-2,1.2980509E-2,-5.5326456E-1,2.9088391E-2,-2.1409016E-2,2.3940165E-2,-8.039027E-3,-6.6034645E-2,-4.229636E-2,6.0233034E-2],"categories":[],"categories_nodes":[],"categories_segments":[],"categories_sizes":[],"default_left":[0,0,0,0,0,0,0,0,0,0,0,0,0,0,0],"id":65,"left_children":[1,-1,3,5,7,-1,9,11,13,-1,-1,-1,-1,-1,-1],"loss_changes":[1.2175179E0,0E0,1.0922976E0,2.8182697E-1,6.0763943E-1,0E0,2.3542686E-1,1.9876647E-1,1.2009277E0,0E0,0E0,0E0,0E0,0E0,0E0],"parents":[2147483647,0,0,2,2,3,3,4,4,6,6,7,7,8,8],"right_children":[2,-1,4,6,8,-1,10,12,14,-1,-1,-1,-1,-1,-1],"split_conditions":[2.64E0,6.442147E-2,1.01E0,3.22E0,2.142E-1,4.852523E-2,3.155E-1,2.94E0,2.543E-1,-2.1409016E-2,2.3940165E-2,-8.039027E-3,-6.6034645E-2,-4.229636E-2,6.0233034E-2],"split_indices":[5,0,6,5,7,0,7,5,4,0,0,0,0,0,0],"split_type":[0,0,0,0,0,0,0,0,0,0,0,0,0,0,0],"sum_hessian":[1.2375676E1,1.5827974E0,1.0792879E1,4.167896E0,6.6249833E0,1.5857043E0,2.5821915E0,3.9737463E0,2.6512368E0,1.3164377E0,1.2657537E0,1.0569565E0,2.9167898E0,1.6288778E0,1.0223591E0],"tree_param":{"num_deleted":"0","num_feature":"11","num_nodes":"15","size_leaf_vector":"1"}},{"base_weights":[-8.605908E-3,-1.7582639E-1,4.0319213E-1,-3.480319E-1,1.2056168E-1,6.458343E-2,-6.4190286E-3,-1.2581399E-1,-4.5185664E-1,-2.4397789E-1,5.3458005E-2,-2.8426236E-2,7.5591127E-3,-1.34823695E-2,-5.174485E-2,1.674084E-2,-5.2925438E-2],"categories":[],"categories_nodes":[],"categories_segments":[],"categories_sizes":[],"default_left":[0,0,0,0,0,0,0,0,0,0,0,0,0,0,0,0,0],"id":66,"left_children":[1,3,5,7,9,-1,-1,11,13,15,-1,-1,-1,-1,-1,-1,-1],"loss_changes":[9.987895E-1,5.6663203E-1,5.172222E-1,9.909779E-2,8.126795E-1,0E0,0E0,1.3440284E-1,1.8009543E-2,4.5129856E-1,0E0,0E0,0E0,0E0,0E0,0E0,0E0],"parents":[2147483647,0,0,1,1,2,2,3,3,4,4,7,7,8,8,9,9],"right_children":[2,4,6,8,10,-1,-1,12,14,16,-1,-1,-1,-1,-1,-1,-1],"split_conditions":[3.351E-1,2.867E-1,1.491E-1,1.429E-1,2.502E-1,6.458343E-2,-6.4190286E-3,1.34E0,1.07E0,7.604E-1,5.3458005E-2,-2.8426236E-2,7.5591127E-3,-1.34823695E-2,-5.174485E-2,1.674084E-2,-5.2925438E-2],"split_indices":[4,7,0,10,4,0,0,6,6,2,0,0,0,0,0,0,0],"split_type":[0,0,0,0,0,0,0,0,0,0,0,0,0,0,0,0,0],"sum_hessian":[1.2474926E1,9.279706E0,3.1952198E0,5.759256E0,3.5204506E0,1.8519609E0,1.3432589E0,2.5382936E0,3.220962E0,2.0904953E0,1.4299552E0,1.190396E0,1.3478976E0,1.0759479E0,2.1450143E0,1.0252267E0,1.0652685E0],"tree_param":{"num_deleted":"0","num_feature":"11","num_nodes":"17","size_leaf_vector":"1"}},{"base_weights":[-5.1940516E-2,4.9133128E-1,-3.4657845E-1,-6.7333453E-3,6.7161575E-2,-5.993391E-1,-3.8246516E-2,-1.5980583E-2,-7.3549755E-2,-4.50977E-2,2.666308E-1,-6.6451714E-3,4.831811E-2],"categories":[],"categories_nodes":[],"categories_segments":[],"categories_sizes":[],"default_left":[0,0,0,0,0,0,0,0,0,0,0,0,0],"id":67,"left_children":[1,3,5,-1,-1,7,9,-1,-1,-1,11,-1,-1],"loss_changes":[2.1436186E0,5.234935E-1,6.4571095E-1,0E0,0E0,1.6053414E-1,7.409791E-1,0E0,0E0,0E0,2.8208393E-1,0E0,0E0],"parents":[2147483647,0,0,1,1,2,2,5,5,6,6,10,10],"right_children":[2,4,6,-1,-1,8,10,-1,-1,-1,12,-1,-1],"split_conditions":[2.91E0,2.173E-1,2.731E-1,-6.7333453E-3,6.7161575E-2,3.22E0,1.209E-1,-1.5980583E-2,-7.3549755E-2,-4.50977E-2,3.027E-1,-6.6451714E-3,4.831811E-2],"split_indices":[5,1,1,0,0,5,7,0,0,0,1,0,0],"split_type":[0,0,0,0,0,0,0,0,0,0,0,0,0],"sum_hessian":[1.1328058E1,3.7485929E0,7.5794654E0,1.0674129E0,2.68118E0,3.6464286E0,3.9330368E0,1.3765289E0,2.2698998E0,1.467367E0,2.4656696E0,1.2445401E0,1.2211297E0],"tree_param":{"num_deleted":"0","num_feature":"11","num_nodes":"13","size_leaf_vector":"1"}},{"base_weights":[-6.95861E-3,6.1220523E-2,-1.3579547E-1,-5.2194357E-1,5.0106134E-2,-6.3967556E-2,-1.8734334E-2,3.054771E-1,-3.4574386E-1,5.1039632E-2,3.5712465E-3,-5.6436855E-2,1.231813E-2],"categories":[],"categories_nodes":[],"categories_segments":[],"categories_sizes":[],"default_left":[0,0,0,0,0,0,0,0,0,0,0,0,0],"id":68,"left_children":[1,-1,3,5,7,-1,-1,9,11,-1,-1,-1,-1],"loss_changes":[1.1099929E0,0E0,8.49807E-1,3.0496716E-2,9.807944E-1,0E0,0E0,3.0203497E-1,4.6565807E-1,0E0,0E0,0E0,0E0],"parents":[2147483647,0,0,2,2,3,3,4,4,7,7,8,8],"right_children":[2,-1,4,6,8,-1,-1,10,12,-1,-1,-1,-1],"split_conditions":[2.64E0,6.1220523E-2,2.312E-1,2.88E-1,1.56E0,-6.3967556E-2,-1.8734334E-2,3.19E0,1.607E-1,5.1039632E-2,3.5712465E-3,-5.6436855E-2,1.231813E-2],"split_indices":[5,0,1,7,6,0,0,5,7,0,0,0,0],"split_type":[0,0,0,0,0,0,0,0,0,0,0,0,0],"sum_hessian":[1.1872554E1,1.3987343E0,1.0473819E1,2.8162901E0,7.6575294E0,1.4088227E0,1.4074674E0,4.793466E0,2.864063E0,2.217215E0,2.5762513E0,1.8145416E0,1.0495214E0],"tree_param":{"num_deleted":"0","num_feature":"11","num_nodes":"13","size_leaf_vector":"1"}},{"base_weights":[5.9124712E-2,-3.189295E-1,1.7807631E-1,-4.557631E-2,-3.3130501E-3,2.9094604E-1,-1.4211574E-1,6.6464424E-2,5.5797637E-1,-4.3349985E-2,1.9128777E-2,2.4996106E-2,-2.3967749E-2,6.442521E-2,1.7310774E-2],"categories":[],"categories_nodes":[],"categories_segments":[],"categories_sizes":[],"default_left":[0,0,0,0,0,0,0,0,0,0,0,0,0,0,0],"id":69,"left_children":[1,3,5,-1,-1,7,9,11,13,-1,-1,-1,-1,-1,-1],"loss_changes":[6.2779325E-1,1.17755294E-1,4.1359255E-1,0E0,0E0,4.3908757E-1,4.0898874E-1,3.6612046E-1,4.452586E-3,0E0,0E0,0E0,0E0,0E0,0E0],"parents":[2147483647,0,0,1,1,2,2,5,5,6,6,7,7,8,8],"right_children":[2,4,6,-1,-1,8,10,12,14,-1,-1,-1,-1,-1,-1],"split_conditions":[7.35E-2,3.351E-1,7.57E-1,-4.557631E-2,-3.3130501E-3,2.321E-1,2.797E-1,1.676E-1,1.32E0,-4.3349985E-2,1.9128777E-2,2.4996106E-2,-2.3967749E-2,6.442521E-2,1.7310774E-2],"split_indices":[7,4,3,0,0,7,4,7,6,0,0,0,0,0,0],"split_type":[0,0,0,0,0,0,0,0,0,0,0,0,0,0,0],"sum_hessian":[1.1697298E1,2.3972244E0,9.300074E0,1.2189316E0,1.1782929E0,6.9437103E0,2.3563628E0,4.4509115E0,2.4927993E0,1.0972102E0,1.2591528E0,2.89763E0,1.5532813E0,1.4857801E0,1.007019E0],"tree_param":{"num_deleted":"0","num_feature":"11","num_nodes":"15","size_leaf_vector":"1"}},{"base_weights":[1.2230433E-2,4.079883E-1,-2.424827E-1,5.4591093E-2,6.986918E-2,-4.3725276E-1,2.9058715E-2,-2.374191E-2,3.5822313E-2,-5.85065E-1,3.3691463E-3,-7.173546E-2,-2.3844792E-2],"categories":[],"categories_nodes":[],"categories_segments":[],"categories_sizes":[],"default_left":[0,0,0,0,0,0,0,0,0,0,0,0,0],"id":70,"left_children":[1,3,5,7,-1,9,-1,-1,-1,11,-1,-1,-1],"loss_changes":[1.3785481E0,5.108199E-1,9.94058E-1,3.950586E-1,0E0,4.7323942E-1,0E0,0E0,0E0,5.8823347E-2,0E0,0E0,0E0],"parents":[2147483647,0,0,1,1,2,2,3,3,5,5,9,9],"right_children":[2,4,6,8,-1,10,-1,-1,-1,12,-1,-1,-1],"split_conditions":[3.01E0,2.731E-1,3.824E-1,1.861E-1,6.986918E-2,3.334E-1,2.9058715E-2,-2.374191E-2,3.5822313E-2,6.694E-1,3.3691463E-3,-7.173546E-2,-2.3844792E-2],"split_indices":[5,1,7,7,0,1,0,0,0,2,0,0,0],"split_type":[0,0,0,0,0,0,0,0,0,0,0,0,0],"sum_hessian":[1.1694027E1,4.34354E0,7.3504868E0,2.4964683E0,1.8470721E0,5.5151415E0,1.8353453E0,1.3837512E0,1.112717E0,4.0132155E0,1.501926E0,2.1305025E0,1.8827132E0],"tree_param":{"num_deleted":"0","num_feature":"11","num_nodes":"13","size_leaf_vector":"1"}},{"base_weights":[3.910662E-3,3.345889E-1,-1.9288997E-1,-7.7002617E-3,5.0387716E-1,-3.7893933E-1,2.743246E-1,5.9508275E-2,1.3849615E-2,-5.081875E-1,-4.901265E-2,-2.8192226E-2,6.811603E-2,9.898415E-4,-6.558771E-2,-1.727574E-2,1.0055874E-2],"categories":[],"categories_nodes":[],"categories_segments":[],"categories_sizes":[],"default_left":[0,0,0,0,0,0,0,0,0,0,0,0,0,0,0,0,0],"id":71,"left_children":[1,3,5,-1,7,9,11,-1,-1,13,15,-1,-1,-1,-1,-1,-1],"loss_changes":[9.255354E-1,4.082207E-1,8.800557E-1,0E0,4.719287E-2,2.6529717E-1,8.987462E-1,0E0,0E0,3.7248182E-1,7.331211E-2,0E0,0E0,0E0,0E0,0E0,0E0],"parents":[2147483647,0,0,1,1,2,2,4,4,5,5,6,6,9,9,10,10],"right_children":[2,4,6,-1,8,10,12,-1,-1,14,16,-1,-1,-1,-1,-1,-1],"split_conditions":[3.01E0,7.35E-2,3.583E-1,-7.7002617E-3,9E0,3.351E-1,2.295E-1,5.9508275E-2,1.3849615E-2,6.43E-2,1.151E-1,-2.8192226E-2,6.811603E-2,9.898415E-4,-6.558771E-2,-1.727574E-2,1.0055874E-2],"split_indices":[5,7,7,0,9,4,1,0,0,10,10,0,0,0,0,0,0],"split_type":[0,0,0,0,0,0,0,0,0,0,0,0,0,0,0,0,0],"sum_hessian":[1.22302885E1,4.3018603E0,7.9284286E0,1.4125816E0,2.8892787E0,5.805544E0,2.1228843E0,1.809045E0,1.0802337E0,3.7831848E0,2.0223594E0,1.0264734E0,1.0964109E0,1.046191E0,2.7369936E0,1.0218977E0,1.0004617E0],"tree_param":{"num_deleted":"0","num_feature":"11","num_nodes":"17","size_leaf_vector":"1"}},{"base_weights":[1.979597E-2,2.7622437E-1,-3.0577177E-1,5.2273512E-2,6.408203E-2,-4.7370124E-1,1.1237802E-2,4.216626E-2,-1.3881299E-1,-5.7421297E-2,-7.2333417E-3,-3.823812E-2,2.3757262E-2],"categories":[],"categories_nodes":[],"categories_segments":[],"categories_sizes":[],"default_left":[0,0,0,0,0,0,0,0,0,0,0,0,0],"id":72,"left_children":[1,3,5,-1,7,9,-1,-1,11,-1,-1,-1,-1],"loss_changes":[1.1154081E0,3.5523164E-1,4.6862262E-1,0E0,4.310755E-1,1.3646793E-1,0E0,0E0,4.6014607E-1,0E0,0E0,0E0,0E0],"parents":[2147483647,0,0,1,1,2,2,4,4,5,5,8,8],"right_children":[2,4,6,-1,8,10,-1,-1,12,-1,-1,-1,-1],"split_conditions":[3.26E0,1.24E0,6.493E-1,5.2273512E-2,2.78E0,3.334E-1,1.1237802E-2,4.216626E-2,2.824E-1,-5.7421297E-2,-7.2333417E-3,-3.823812E-2,2.3757262E-2],"split_indices":[5,6,0,0,5,1,0,0,0,0,0,0,0],"split_type":[0,0,0,0,0,0,0,0,0,0,0,0,0],"sum_hessian":[1.1348912E1,6.4333467E0,4.9155655E0,2.2984529E0,4.134894E0,3.412322E0,1.5032433E0,1.1065278E0,3.028366E0,2.3845384E0,1.0277834E0,1.8289069E0,1.1994592E0],"tree_param":{"num_deleted":"0","num_feature":"11","num_nodes":"13","size_leaf_vector":"1"}},{"base_weights":[3.671814E-2,1.6735913E-1,-5.7826694E-2,-4.975353E-2,4.622816E-1,-2.5635844E-1,5.1654488E-2,2.1304233E-1,6.1954465E-2,2.1594666E-2,-4.2864054E-2,3.4079414E-2,-3.9779763E-3],"categories":[],"categories_nodes":[],"categories_segments":[],"categories_sizes":[],"default_left":[0,0,0,0,0,0,0,0,0,0,0,0,0],"id":73,"left_children":[1,3,-1,5,7,9,-1,11,-1,-1,-1,-1,-1],"loss_changes":[1.0494525E0,6.988937E-1,0E0,9.493956E-1,4.725349E-2,5.632436E-1,0E0,1.1992288E-1,0E0,0E0,0E0,0E0,0E0],"parents":[2147483647,0,0,1,1,3,3,4,4,5,5,7,7],"right_children":[2,4,-1,6,8,10,-1,12,-1,-1,-1,-1,-1],"split_conditions":[3.6E0,